{"learner":{"attributes":{},"feature_names":[],"feature_types":[],"gradient_booster":{"model":{"cats":{"enc":[],"feature_segments":[],"sorted_idx":[]},"gbtree_model_param":{"num_parallel_tree":"1","num_trees":"20"},"iteration_indptr":[0,1,2,3,4,5,6,7,8,9,10,11,12,13,14,15,16,17,18,19,20],"tree_info":[0,0,0,0,0,0,0,0,0,0,0,0,0,0,0,0,0,0,0,0],"trees":[{"base_weights":[-2.8646218E-8,6.859212E-1,-5.4029363E-1,-2.9892546E-1,1.1382617E0,1.1367917E0,-7.5781363E-1,-5.788368E-1,1.3341302E0,-3.282188E-1,1.3188822E0,-3.5571584E-1,1.3610253E0,-1.0715388E0,7.0651937E-1,3.3426404E-1,-1.6540195E-1,2.995108E-1,-9.152391E-2,1.9240466E-1,-1.1946888E-1,9.359997E-2,2.8212366E-1,1.7478502E-1,-2.7059042E-1,2.8765565E-1,2.9718816E-2,-2.8324795E-1,-2.3435088E-2,-6.699746E-2,2.0136045E-1],"categories":[],"categories_nodes":[],"categories_segments":[],"categories_sizes":[],"default_left":[0,0,0,1,0,0,1,0,1,0,0,0,1,1,0,0,0,0,0,0,0,0,0,0,0,0,0,0,0,0,0],"id":0,"left_children":[1,3,5,7,9,11,13,15,17,19,21,23,25,27,29,-1,-1,-1,-1,-1,-1,-1,-1,-1,-1,-1,-1,-1,-1,-1,-1],"loss_changes":[3.7050388E2,1.9657953E2,2.0487112E2,6.4510376E1,8.044394E1,2.2105911E1,2.2844922E2,6.824363E1,6.748169E0,1.235487E1,2.0348267E1,1.2502297E1,5.066559E0,1.3424402E2,2.7875584E1,0E0,0E0,0E0,0E0,0E0,0E0,0E0,0E0,0E0,0E0,0E0,0E0,0E0,0E0,0E0,0E0],"parents":[2147483647,0,0,1,1,2,2,3,3,4,4,5,5,6,6,7,7,8,8,9,9,10,10,11,11,12,12,13,13,14,14],"right_children":[2,4,6,8,10,12,14,16,18,20,22,24,26,28,30,-1,-1,-1,-1,-1,-1,-1,-1,-1,-1,-1,-1,-1,-1,-1,-1],"split_conditions":[-1.123649E-1,-4.337689E-1,-1.1627656E0,1.064373E0,-1.6679517E0,-8.989746E-1,9.5223546E-1,-1.3403888E0,1.4437683E0,-9.188311E-1,-1.1677383E0,-1.600088E0,1.3657718E0,5.1490015E-1,-7.278083E-1,3.3426404E-1,-1.6540195E-1,2.995108E-1,-9.152391E-2,1.9240466E-1,-1.1946888E-1,9.359997E-2,2.8212366E-1,1.7478502E-1,-2.7059042E-1,2.8765565E-1,2.9718816E-2,-2.8324795E-1,-2.3435088E-2,-6.699746E-2,2.0136045E-1],"split_indices":[2,4,3,3,2,4,3,3,1,3,1,3,0,4,4,0,0,0,0,0,0,0,0,0,0,0,0,0,0,0,0],"split_type":[0,0,0,0,0,0,0,0,0,0,0,0,0,0,0,0,0,0,0,0,0,0,0,0,0,0,0,0,0,0,0],"sum_hessian":[9.977437E2,4.395061E2,5.582376E2,1.3843694E2,3.0106918E2,6.3606163E1,4.9463144E2,1.1873151E2,1.9705439E1,3.2925545E1,2.6814362E2,8.231386E0,5.5374775E1,4.075783E2,8.705314E1,1.1224617E1,1.0750689E2,1.8208822E1,1.4966156E0,5.2381544E0,2.7687387E1,2.6689644E1,2.4145398E2,3.741539E0,4.4898467E0,5.1882675E1,3.492103E0,2.9907367E2,1.0850463E2,1.9456003E1,6.759714E1],"tree_param":{"num_deleted":"0","num_feature":"12","num_nodes":"31","size_leaf_vector":"1"}},{"base_weights":[2.3220847E-3,4.5819673E-1,-5.699739E-1,-3.6234838E-1,8.4123343E-1,7.27594E-1,-7.885956E-1,-5.687672E-1,1.3252082E0,7.672776E-2,1.0324137E0,-8.741908E-1,9.154191E-1,-1.0497111E0,6.4688784E-1,1.8650366E-1,-1.5691873E-1,-7.31672E-2,3.017002E-1,2.4633348E-1,-3.801971E-2,1.5532802E-1,2.6111418E-1,1.9436102E-1,-2.8362548E-1,2.9419494E-1,9.328269E-2,-2.4996822E-1,4.6533387E-2,6.117743E-2,2.9872662E-1],"categories":[],"categories_nodes":[],"categories_segments":[],"categories_sizes":[],"default_left":[1,0,0,1,1,0,1,0,0,0,1,0,0,1,0,0,0,0,0,0,0,0,0,0,0,0,0,0,0,0,0],"id":1,"left_children":[1,3,5,7,9,11,13,15,17,19,21,23,25,27,29,-1,-1,-1,-1,-1,-1,-1,-1,-1,-1,-1,-1,-1,-1,-1,-1],"loss_changes":[2.5716312E2,1.7274506E2,1.24552765E2,6.182025E1,5.463446E1,1.9916027E1,1.4105374E2,5.1569675E1,6.5669785E0,2.3644512E1,1.9902557E1,8.587656E0,1.3621746E1,8.171011E1,1.6364296E1,0E0,0E0,0E0,0E0,0E0,0E0,0E0,0E0,0E0,0E0,0E0,0E0,0E0,0E0,0E0,0E0],"parents":[2147483647,0,0,1,1,2,2,3,3,4,4,5,5,6,6,7,7,8,8,9,9,10,10,11,11,12,12,13,13,14,14],"right_children":[2,4,6,8,10,12,14,16,18,20,22,24,26,28,30,-1,-1,-1,-1,-1,-1,-1,-1,-1,-1,-1,-1,-1,-1,-1,-1],"split_conditions":[5.0558474E-2,-4.337689E-1,-1.0351939E0,1.2373791E0,-1.5547521E0,-1.1914408E0,1.064373E0,-1.1124778E0,-1.9202696E0,-9.188311E-1,4.335832E-1,-2.0529017E0,-1.5131589E0,9.898073E-1,1.6831871E0,1.8650366E-1,-1.5691873E-1,-7.31672E-2,3.017002E-1,2.4633348E-1,-3.801971E-2,1.5532802E-1,2.6111418E-1,1.9436102E-1,-2.8362548E-1,2.9419494E-1,9.328269E-2,-2.4996822E-1,4.6533387E-2,6.117743E-2,2.9872662E-1],"split_indices":[2,4,3,3,2,4,3,3,2,3,4,3,3,4,3,0,0,0,0,0,0,0,0,0,0,0,0,0,0,0,0],"split_type":[0,0,0,0,0,0,0,0,0,0,0,0,0,0,0,0,0,0,0,0,0,0,0,0,0,0,0,0,0,0,0],"sum_hessian":[9.83694E2,5.476505E2,4.3604343E2,1.7430551E2,3.7334503E2,6.2538094E1,3.7350534E2,1.5589917E2,1.8406334E1,7.4966194E1,2.9837885E2,6.1800385E0,5.6358055E1,3.162483E2,5.7257042E1,1.917783E1,1.3672134E2,1.7025789E0,1.6703756E1,1.3390468E1,6.157573E1,1.560773E2,1.4230153E2,1.2275163E0,4.9525223E0,2.4172857E1,3.2185196E1,2.7357855E2,4.266974E1,4.1789036E1,1.5468006E1],"tree_param":{"num_deleted":"0","num_feature":"12","num_nodes":"31","size_leaf_vector":"1"}},{"base_weights":[4.2200764E-3,-4.8168537E-1,3.7327E-1,-6.2254965E-1,8.2502395E-1,7.850801E-1,-1.3893652E-1,5.781146E-1,-8.1778705E-1,1.1644391E0,1.5521799E-1,1.5145987E-1,9.5612556E-1,8.6781615E-1,-3.7253746E-1,-7.954137E-2,1.9045146E-1,-5.346149E-2,-2.3521538E-1,-2.345141E-2,2.5413072E-1,-6.555202E-2,1.9721848E-1,2.5506037E-1,-1.5862739E-2,4.448538E-3,2.110462E-1,-6.752319E-2,2.0263162E-1,-1.2979436E-1,1.766073E-1],"categories":[],"categories_nodes":[],"categories_segments":[],"categories_sizes":[],"default_left":[0,1,1,0,1,1,0,0,0,0,0,0,0,1,1,0,0,0,0,0,0,0,0,0,0,0,0,0,0,0,0],"id":2,"left_children":[1,3,5,7,9,11,13,15,17,19,21,23,25,27,29,-1,-1,-1,-1,-1,-1,-1,-1,-1,-1,-1,-1,-1,-1,-1,-1],"loss_changes":[1.7161865E2,7.655555E1,1.1483798E2,8.802342E1,9.056345E0,3.2548065E1,5.7532364E1,1.9664368E1,6.312767E1,3.799076E0,6.2697735E0,1.703962E1,2.1943573E1,8.421257E0,6.934564E1,0E0,0E0,0E0,0E0,0E0,0E0,0E0,0E0,0E0,0E0,0E0,0E0,0E0,0E0,0E0,0E0],"parents":[2147483647,0,0,1,1,2,2,3,3,4,4,5,5,6,6,7,7,8,8,9,9,10,10,11,11,12,12,13,13,14,14],"right_children":[2,4,6,8,10,12,14,16,18,20,22,24,26,28,30,-1,-1,-1,-1,-1,-1,-1,-1,-1,-1,-1,-1,-1,-1,-1,-1],"split_conditions":[-1.13067225E-1,1.2373791E0,5.0558474E-2,-1.0554817E0,2.861319E-1,-1.5547521E0,-8.332521E-1,-1.1914408E0,-2.1877468E-1,-1.9202696E0,1.6831871E0,-9.188311E-1,-1.2339169E0,-6.55648E-2,1.026388E0,-7.954137E-2,1.9045146E-1,-5.346149E-2,-2.3521538E-1,-2.345141E-2,2.5413072E-1,-6.555202E-2,1.9721848E-1,2.5506037E-1,-1.5862739E-2,4.448538E-3,2.110462E-1,-6.752319E-2,2.0263162E-1,-1.2979436E-1,1.766073E-1],"split_indices":[4,3,2,3,2,2,3,4,2,2,3,3,0,4,3,0,0,0,0,0,0,0,0,0,0,0,0,0,0,0,0],"split_type":[0,0,0,0,0,0,0,0,0,0,0,0,0,0,0,0,0,0,0,0,0,0,0,0,0,0,0,0,0,0,0],"sum_hessian":[9.5503186E2,4.121172E2,5.429147E2,3.7248645E2,3.9630753E1,3.0065646E2,2.4225821E2,5.182343E1,3.2066302E2,2.5812265E1,1.3818487E1,6.431048E1,2.36346E2,4.5114178E1,1.9714403E2,1.4345412E1,3.7478016E1,1.2711244E2,1.9355057E2,1.9674155E0,2.384485E1,9.121679E0,4.696808E0,1.0184904E1,5.4125576E1,2.2792635E1,2.1355336E2,4.711898E0,4.040228E1,1.6196747E2,3.517656E1],"tree_param":{"num_deleted":"0","num_feature":"12","num_nodes":"31","size_leaf_vector":"1"}},{"base_weights":[5.3309794E-3,3.7874994E-1,-3.5252875E-1,-3.6127985E-1,6.013809E-1,-4.6732524E-1,1.0798172E0,-5.62358E-1,8.37422E-1,3.6548425E-2,8.504802E-1,-6.8795514E-1,3.1592715E-1,-3.6979434E-1,1.2723339E0,2.262553E-1,-1.4717312E-1,2.0693746E-1,-1.7512403E-1,-9.198359E-2,9.107422E-2,1.6327582E-2,1.880794E-1,-1.5642318E-1,1.8447404E-1,2.0947938E-1,9.925267E-3,-1.6699667E-1,1.14487626E-1,9.996286E-2,2.998118E-1],"categories":[],"categories_nodes":[],"categories_segments":[],"categories_sizes":[],"default_left":[1,0,0,1,1,1,0,0,0,0,0,1,0,0,1,0,0,0,0,0,0,0,0,0,0,0,0,0,0,0,0],"id":3,"left_children":[1,3,5,7,9,11,13,15,17,19,21,23,25,27,29,-1,-1,-1,-1,-1,-1,-1,-1,-1,-1,-1,-1,-1,-1,-1,-1],"loss_changes":[1.2330291E2,7.460855E1,7.797957E1,2.579108E1,4.8859474E1,7.572008E1,1.0311504E1,2.7443287E1,6.1410933E0,2.2539171E1,1.6590378E1,5.2458206E1,1.8786053E1,2.6296277E0,4.742401E0,0E0,0E0,0E0,0E0,0E0,0E0,0E0,0E0,0E0,0E0,0E0,0E0,0E0,0E0,0E0,0E0],"parents":[2147483647,0,0,1,1,2,2,3,3,4,4,5,5,6,6,7,7,8,8,9,9,10,10,11,11,12,12,13,13,14,14],"right_children":[2,4,6,8,10,12,14,16,18,20,22,24,26,28,30,-1,-1,-1,-1,-1,-1,-1,-1,-1,-1,-1,-1,-1,-1,-1,-1],"split_conditions":[-1.123649E-1,-6.882986E-1,1.7327758E0,1.064373E0,-1.2872276E0,7.471727E-1,-1.2427301E0,-1.4167918E0,1.557202E0,3.7708843E-1,-1.1677383E0,1.5108887E0,-6.770078E-1,9.2190164E-1,-1.0684843E0,2.262553E-1,-1.4717312E-1,2.0693746E-1,-1.7512403E-1,-9.198359E-2,9.107422E-2,1.6327582E-2,1.880794E-1,-1.5642318E-1,1.8447404E-1,2.0947938E-1,9.925267E-3,-1.6699667E-1,1.14487626E-1,9.996286E-2,2.998118E-1],"split_indices":[2,4,2,3,2,4,4,3,11,4,1,3,3,3,0,0,0,0,0,0,0,0,0,0,0,0,0,0,0,0,0],"split_type":[0,0,0,0,0,0,0,0,0,0,0,0,0,0,0,0,0,0,0,0,0,0,0,0,0,0,0,0,0,0,0],"sum_hessian":[9.207085E2,4.5053085E2,4.7017764E2,1.0404855E2,3.464823E2,4.3591467E2,3.426299E1,8.9556595E1,1.4491956E1,1.0638994E2,2.4009235E2,3.4020572E2,9.570893E1,3.9089024E0,3.0354086E1,7.80925E0,8.1747345E1,1.3350567E1,1.1413891E0,4.8637558E1,5.775238E1,2.5338768E1,2.1475357E2,3.2189767E2,1.8308046E1,2.4761477E1,7.094746E1,2.6931121E0,1.2157903E0,7.6143255E0,2.2739761E1],"tree_param":{"num_deleted":"0","num_feature":"12","num_nodes":"31","size_leaf_vector":"1"}},{"base_weights":[6.2914714E-3,-2.0082895E-1,5.1194286E-1,7.17692E-1,-3.2987332E-1,8.1621754E-1,8.608128E-2,1.365614E0,4.1729236E-1,-5.1438224E-1,5.699782E-1,-3.925207E-2,9.495273E-1,-1.3368095E-1,1.1402185E0,2.7927935E-1,7.3140234E-2,-1.374023E-1,1.2876676E-1,-1.4589602E-2,-1.5982209E-1,1.7657141E-1,1.6947642E-2,2.798799E-1,-2.6973286E-1,-6.1648775E-2,2.2363983E-1,-7.938367E-2,1.2188562E-1,-2.0867823E-2,2.5598922E-1],"categories":[],"categories_nodes":[],"categories_segments":[],"categories_sizes":[],"default_left":[1,0,1,0,1,0,0,0,0,0,1,1,0,1,1,0,0,0,0,0,0,0,0,0,0,0,0,0,0,0,0],"id":4,"left_children":[1,3,5,7,9,11,13,15,17,19,21,23,25,27,29,-1,-1,-1,-1,-1,-1,-1,-1,-1,-1,-1,-1,-1,-1,-1,-1],"loss_changes":[9.347732E1,7.5291115E1,3.3536987E1,1.4673393E1,9.258847E1,1.7275444E1,2.5450035E1,2.3940277E-1,1.4188822E1,5.7988686E1,1.4357645E1,4.2086422E1,2.8097404E1,1.8093285E1,3.427803E0,0E0,0E0,0E0,0E0,0E0,0E0,0E0,0E0,0E0,0E0,0E0,0E0,0E0,0E0,0E0,0E0],"parents":[2147483647,0,0,1,1,2,2,3,3,4,4,5,5,6,6,7,7,8,8,9,9,10,10,11,11,12,12,13,13,14,14],"right_children":[2,4,6,8,10,12,14,16,18,20,22,24,26,28,30,-1,-1,-1,-1,-1,-1,-1,-1,-1,-1,-1,-1,-1,-1,-1,-1],"split_conditions":[5.2520496E-1,-1.0895422E0,1.4452325E-1,-1.673448E0,9.782233E-1,-1.0806987E0,1.4219921E0,1.7963264E0,-1.2161433E0,-2.0956084E-1,1.4452325E-1,7.27396E-2,-1.1466206E0,6.155995E-1,-1.7898098E0,2.7927935E-1,7.3140234E-2,-1.374023E-1,1.2876676E-1,-1.4589602E-2,-1.5982209E-1,1.7657141E-1,1.6947642E-2,2.798799E-1,-2.6973286E-1,-6.1648775E-2,2.2363983E-1,-7.938367E-2,1.2188562E-1,-2.0867823E-2,2.5598922E-1],"split_indices":[4,3,2,3,3,0,2,0,4,2,2,1,1,3,8,0,0,0,0,0,0,0,0,0,0,0,0,0,0,0,0],"split_type":[0,0,0,0,0,0,0,0,0,0,0,0,0,0,0,0,0,0,0,0,0,0,0,0,0,0,0,0,0,0,0],"sum_hessian":[8.9056744E2,6.3221E2,2.5835742E2,7.73169E1,5.548931E2,1.5015573E2,1.08201675E2,2.3368395E1,5.3948505E1,4.6083102E2,9.406214E1,2.0339506E1,1.2981622E2,9.02582E1,1.7943478E1,2.2285797E1,1.0825968E0,8.837317E0,4.5111187E1,1.8118433E2,2.7964667E2,5.668967E1,3.737247E1,9.658732E0,1.0680775E1,1.5252455E1,1.1456377E2,6.6992714E1,2.326549E1,1.8367512E0,1.6106726E1],"tree_param":{"num_deleted":"0","num_feature":"12","num_nodes":"31","size_leaf_vector":"1"}},{"base_weights":[7.336245E-3,-3.5061207E-1,2.499545E-1,8.219804E-1,-4.3764752E-1,5.259342E-1,-7.62508E-2,2.6061592E-1,2.5590196E-1,-5.3011584E-1,9.0357363E-1,-3.9133847E-1,6.2708515E-1,5.136063E-1,-3.2195535E-1,1.9273157E-1,-2.022254E-1,-1.1707395E-1,1.8585433E-1,-6.0315836E-2,2.094713E-1,-1.4290348E-1,1.6199555E-1,-2.7151907E-2,1.4433123E-1,2.408767E-2,1.7993759E-1,-1.5525214E-1,6.4524606E-2],"categories":[],"categories_nodes":[],"categories_segments":[],"categories_sizes":[],"default_left":[0,0,1,0,1,0,0,0,0,1,0,1,0,1,1,0,0,0,0,0,0,0,0,0,0,0,0,0,0],"id":5,"left_children":[1,3,5,7,9,11,13,-1,15,17,19,21,23,25,27,-1,-1,-1,-1,-1,-1,-1,-1,-1,-1,-1,-1,-1,-1],"loss_changes":[7.468846E1,3.5818684E1,4.618482E1,6.2992E0,4.067253E1,2.6019394E1,3.4337543E1,0E0,1.2123964E1,2.5042702E1,4.0019436E0,1.1529413E1,1.8175682E1,1.047471E1,4.9172585E1,0E0,0E0,0E0,0E0,0E0,0E0,0E0,0E0,0E0,0E0,0E0,0E0,0E0,0E0],"parents":[2147483647,0,0,1,1,2,2,3,3,4,4,5,5,6,6,8,8,9,9,10,10,11,11,12,12,13,13,14,14],"right_children":[2,4,6,8,10,12,14,-1,16,18,20,22,24,26,28,-1,-1,-1,-1,-1,-1,-1,-1,-1,-1,-1,-1,-1,-1],"split_conditions":[-1.9810478E-1,-1.3886317E0,5.0558474E-2,1.4452325E-1,1.5108887E0,-1.6679517E0,-5.207651E-1,2.6061592E-1,-1.600088E0,1.7883089E0,-1.348635E0,8.0469656E-1,-1.2339169E0,5.334626E-1,4.877684E-1,1.9273157E-1,-2.022254E-1,-1.1707395E-1,1.8585433E-1,-6.0315836E-2,2.094713E-1,-1.4290348E-1,1.6199555E-1,-2.7151907E-2,1.4433123E-1,2.408767E-2,1.7993759E-1,-1.5525214E-1,6.4524606E-2],"split_indices":[4,3,2,2,3,2,3,0,3,2,0,3,0,4,3,0,0,0,0,0,0,0,0,0,0,0,0,0,0],"split_type":[0,0,0,0,0,0,0,0,0,0,0,0,0,0,0,0,0,0,0,0,0,0,0,0,0,0,0,0,0],"sum_hessian":[8.5801306E2,3.4644226E2,5.115708E2,2.3354359E1,3.230879E2,2.767877E2,2.3478313E2,1.1920996E1,1.1433364E1,3.0281552E2,2.0272373E1,2.7205925E1,2.4958176E2,6.8719505E1,1.6606363E2,7.489309E0,3.9440546E0,2.9234592E2,1.0469625E1,2.0438507E0,1.8228523E1,2.1757837E1,5.448087E0,2.7480251E1,2.221015E2,3.4697304E1,3.40222E1,9.728903E1,6.877459E1],"tree_param":{"num_deleted":"0","num_feature":"12","num_nodes":"29","size_leaf_vector":"1"}},{"base_weights":[7.6948353E-3,5.898177E-1,-1.21016055E-1,-3.820668E-1,7.353805E-1,-3.2956907E-1,4.7712862E-1,5.302296E-1,-8.34276E-1,1.0239983E0,3.4738252E-1,-4.5179015E-1,5.064602E-1,7.873947E-1,7.0897855E-2,-6.4249225E-2,1.9419855E-1,2.8483367E-2,-2.2021161E-1,-3.0728271E-2,2.2188354E-1,2.0947807E-1,8.427295E-3,-2.3444053E-2,-1.3585357E-1,1.1460465E-1,-2.8598073E-1,1.2884025E-2,1.9240116E-1,-5.1468324E-2,1.5039532E-1],"categories":[],"categories_nodes":[],"categories_segments":[],"categories_sizes":[],"default_left":[0,0,1,0,1,1,1,1,0,0,0,0,1,0,0,0,0,0,0,0,0,0,0,0,0,0,0,0,0,0,0],"id":6,"left_children":[1,3,5,7,9,11,13,15,17,19,21,23,25,27,29,-1,-1,-1,-1,-1,-1,-1,-1,-1,-1,-1,-1,-1,-1,-1,-1],"loss_changes":[6.221947E1,2.1552666E1,8.499661E1,8.794308E0,1.4327171E1,5.18166E1,2.2156567E1,3.0593812E0,3.7849169E0,7.6821594E0,1.2229925E1,3.3483955E1,9.179913E0,1.2539207E1,1.7499874E1,0E0,0E0,0E0,0E0,0E0,0E0,0E0,0E0,0E0,0E0,0E0,0E0,0E0,0E0,0E0,0E0],"parents":[2147483647,0,0,1,1,2,2,3,3,4,4,5,5,6,6,7,7,8,8,9,9,10,10,11,11,12,12,13,13,14,14],"right_children":[2,4,6,8,10,12,14,16,18,20,22,24,26,28,30,-1,-1,-1,-1,-1,-1,-1,-1,-1,-1,-1,-1,-1,-1,-1,-1],"split_conditions":[-8.332521E-1,-1.1517773E0,7.581849E-1,-1.4167918E0,1.4452325E-1,1.0905013E0,1.0924207E-1,-1.2189808E-2,-6.0478234E-1,-1.5040715E0,-1.5131589E0,-2.0189244E-1,1.9852326E0,-8.5099006E-1,6.7720896E-1,-6.4249225E-2,1.9419855E-1,2.8483367E-2,-2.2021161E-1,-3.0728271E-2,2.2188354E-1,2.0947807E-1,8.427295E-3,-2.3444053E-2,-1.3585357E-1,1.1460465E-1,-2.8598073E-1,1.2884025E-2,1.9240116E-1,-5.1468324E-2,1.5039532E-1],"split_indices":[3,4,3,3,2,4,2,5,11,0,3,2,0,4,4,0,0,0,0,0,0,0,0,0,0,0,0,0,0,0,0],"split_type":[0,0,0,0,0,0,0,0,0,0,0,0,0,0,0,0,0,0,0,0,0,0,0,0,0,0,0,0,0,0,0],"sum_hessian":[8.2846466E2,1.4936166E2,6.7910297E2,1.9244753E1,1.3011691E2,5.0386957E2,1.7523341E2,6.320703E0,1.292405E1,7.367416E1,5.6442757E1,4.4000394E2,6.3865616E1,9.881976E1,7.641366E1,2.2483845E0,4.0723186E0,2.8728118E0,1.0051238E1,4.9284945E0,6.874567E1,1.6400618E1,4.004214E1,1.7869623E2,2.613077E2,6.242385E1,1.4417644E0,1.949013E1,7.9329636E1,5.1983063E1,2.4430593E1],"tree_param":{"num_deleted":"0","num_feature":"12","num_nodes":"31","size_leaf_vector":"1"}},{"base_weights":[7.654877E-3,-5.327432E-1,1.22995816E-1,-6.3956255E-1,4.5972183E-1,3.298376E-1,-1.652917E-1,5.4912806E-1,-7.284229E-1,8.250862E-1,-5.043253E-1,-5.2855915E-1,4.2260808E-1,-3.341138E-1,9.649177E-1,2.1599014E-1,-4.266372E-2,6.103464E-2,-1.6546768E-1,-7.89532E-2,2.0478304E-1,-2.5202462E-1,3.5912476E-2,-1.5602992E-1,8.7997116E-2,1.9339076E-1,6.2883854E-2,1.105931E-1,-8.9927346E-2,2.1832089E-1,-2.3289631E-1],"categories":[],"categories_nodes":[],"categories_segments":[],"categories_sizes":[],"default_left":[0,1,1,0,0,0,0,0,0,0,0,1,0,0,1,0,0,0,0,0,0,0,0,0,0,0,0,0,0,0,0],"id":7,"left_children":[1,3,5,7,9,11,13,15,17,19,21,23,25,27,29,-1,-1,-1,-1,-1,-1,-1,-1,-1,-1,-1,-1,-1,-1,-1,-1],"loss_changes":[4.9961105E1,1.5241249E1,3.9440907E1,1.3889679E1,5.446731E0,3.0875744E1,5.309848E1,4.0562572E0,1.244516E1,3.008237E0,2.5759373E0,9.599665E0,2.018629E1,2.4986212E1,1.1037746E1,0E0,0E0,0E0,0E0,0E0,0E0,0E0,0E0,0E0,0E0,0E0,0E0,0E0,0E0,0E0,0E0],"parents":[2147483647,0,0,1,1,2,2,3,3,4,4,5,5,6,6,7,7,8,8,9,9,10,10,11,11,12,12,13,13,14,14],"right_children":[2,4,6,8,10,12,14,16,18,20,22,24,26,28,30,-1,-1,-1,-1,-1,-1,-1,-1,-1,-1,-1,-1,-1,-1,-1,-1],"split_conditions":[-8.778182E-1,1.2373791E0,1.4452325E-1,-1.4167918E0,8.317808E-1,-1.6679517E0,1.5753458E0,1.8336894E-1,-1.4049786E0,-1.2763795E0,1.073708E0,1.0331422E0,-8.475859E-1,-1.1627656E0,1.4582019E0,2.1599014E-1,-4.266372E-2,6.103464E-2,-1.6546768E-1,-7.89532E-2,2.0478304E-1,-2.5202462E-1,3.5912476E-2,-1.5602992E-1,8.7997116E-2,1.9339076E-1,6.2883854E-2,1.105931E-1,-8.9927346E-2,2.1832089E-1,-2.3289631E-1],"split_indices":[4,3,2,3,11,2,2,2,1,0,11,4,3,3,0,0,0,0,0,0,0,0,0,0,0,0,0,0,0,0,0],"split_type":[0,0,0,0,0,0,0,0,0,0,0,0,0,0,0,0,0,0,0,0,0,0,0,0,0,0,0,0,0,0,0],"sum_hessian":[7.995064E2,1.3999231E2,6.595141E2,1.26710045E2,1.3282265E1,3.8391614E2,2.7559793E2,8.453071E0,1.1825697E2,9.736406E0,3.5458586E0,3.6986454E1,3.469297E2,2.4039406E2,3.5203865E1,4.7380013E0,3.7150693E0,1.0146643E1,1.0811033E2,1.2264509E0,8.509955E0,1.2841232E0,2.2617352E0,2.9514296E1,7.4721584E0,5.620415E1,2.9072552E2,2.7262632E1,2.1313144E2,3.368705E1,1.5168154E0],"tree_param":{"num_deleted":"0","num_feature":"12","num_nodes":"31","size_leaf_vector":"1"}},{"base_weights":[6.606318E-3,-7.281717E-2,7.2323716E-1,3.5242078E-1,-2.5560066E-1,8.549031E-1,-6.8744314E-1,8.543869E-2,7.1204585E-1,2.8348793E-3,-4.884504E-1,4.845415E-1,1.1080878E0,-1.7497019E0,2.0048013E-1,2.069038E-1,-6.9751157E-3,-1.9913001E-1,1.4914103E-1,-1.0672438E-1,6.2945805E-2,-1.185413E-1,8.668213E-2,1.6516714E-1,-8.1331434E-4,2.2972904E-1,-2.0893287E-2,-3.52325E-2,-4.446025E-1],"categories":[],"categories_nodes":[],"categories_segments":[],"categories_sizes":[],"default_left":[1,0,1,1,1,0,0,0,0,1,0,1,1,1,0,0,0,0,0,0,0,0,0,0,0,0,0,0,0],"id":8,"left_children":[1,3,5,7,9,11,13,15,17,19,21,23,25,27,-1,-1,-1,-1,-1,-1,-1,-1,-1,-1,-1,-1,-1,-1,-1],"loss_changes":[4.4259754E1,5.4506897E1,1.4997826E1,2.0187107E1,2.9501183E1,6.1587753E0,1.4637578E1,1.3986331E1,5.899395E0,3.920971E1,2.5041733E1,5.134632E0,2.1675224E0,3.1618843E0,0E0,0E0,0E0,0E0,0E0,0E0,0E0,0E0,0E0,0E0,0E0,0E0,0E0,0E0,0E0],"parents":[2147483647,0,0,1,1,2,2,3,3,4,4,5,5,6,6,7,7,8,8,9,9,10,10,11,11,12,12,13,13],"right_children":[2,4,6,8,10,12,14,16,18,20,22,24,26,28,-1,-1,-1,-1,-1,-1,-1,-1,-1,-1,-1,-1,-1,-1,-1],"split_conditions":[1.2065414E0,-5.207651E-1,1.3849194E0,1.2942874E-1,-2.0189244E-1,-1.7972523E-1,-1.3464214E-1,-1.673448E0,-2.0446E0,-1.2374929E0,1.5753458E0,2.861319E-1,1.2564905E0,-4.5072344E-1,2.0048013E-1,2.069038E-1,-6.9751157E-3,-1.9913001E-1,1.4914103E-1,-1.0672438E-1,6.2945805E-2,-1.185413E-1,8.668213E-2,1.6516714E-1,-8.1331434E-4,2.2972904E-1,-2.0893287E-2,-3.52325E-2,-4.446025E-1],"split_indices":[3,3,0,4,2,4,1,3,1,2,2,2,0,7,0,0,0,0,0,0,0,0,0,0,0,0,0,0,0],"split_type":[0,0,0,0,0,0,0,0,0,0,0,0,0,0,0,0,0,0,0,0,0,0,0,0,0,0,0,0,0],"sum_hessian":[7.756895E2,6.9910657E2,7.658289E1,2.0988654E2,4.8922006E2,7.040557E1,6.1773295E0,1.2116926E2,8.871727E1,2.323391E2,2.5688098E2,2.977058E1,4.0634987E1,3.7712488E0,2.4060805E0,1.2777497E1,1.0839176E2,1.1624101E0,8.755486E1,8.515753E1,1.4718156E2,2.3110199E2,2.577898E1,1.7121197E1,1.2649385E1,3.937082E1,1.2641666E0,1.1893616E0,2.5818872E0],"tree_param":{"num_deleted":"0","num_feature":"12","num_nodes":"29","size_leaf_vector":"1"}},{"base_weights":[6.6241235E-3,-7.133889E-2,6.724927E-1,-1.8036307E-1,3.3831438E-1,7.3255306E-1,-2.2630134E-1,1.9102155E-1,-4.2888892E-1,4.137756E-1,-7.530105E-1,8.8492304E-1,-1.248676E-1,2.0166345E-1,2.1131286E-2,-3.1924024E-2,-1.2812102E-1,-3.261774E-2,1.1536399E-1,-3.430203E-1,2.3358338E-1,2.1598108E-1,9.4801076E-2,-3.1863695E-1,1.810471E-1],"categories":[],"categories_nodes":[],"categories_segments":[],"categories_sizes":[],"default_left":[1,1,1,0,1,1,0,0,1,0,0,1,0,0,0,0,0,0,0,0,0,0,0,0,0],"id":9,"left_children":[1,3,5,7,9,11,-1,13,15,17,19,21,23,-1,-1,-1,-1,-1,-1,-1,-1,-1,-1,-1,-1],"loss_changes":[3.9175415E1,3.0235443E1,9.39867E0,4.939305E1,1.2035294E1,1.0190155E1,0E0,1.488521E1,1.8162018E1,1.2678383E1,1.967408E1,4.746887E0,2.0376131E1,0E0,0E0,0E0,0E0,0E0,0E0,0E0,0E0,0E0,0E0,0E0,0E0],"parents":[2147483647,0,0,1,1,2,2,3,3,4,4,5,5,7,7,8,8,9,9,10,10,11,11,12,12],"right_children":[2,4,6,8,10,12,-1,14,16,18,20,22,24,-1,-1,-1,-1,-1,-1,-1,-1,-1,-1,-1,-1],"split_conditions":[1.2136574E0,7.581849E-1,1.9852326E0,-4.0469694E-1,1.5008856E0,1.0931904E0,-2.2630134E-1,-1.673448E0,-3.3209726E-1,-8.5099006E-1,-3.1865346E-3,4.1549227E-1,-5.635943E-1,2.0166345E-1,2.1131286E-2,-3.1924024E-2,-1.2812102E-1,-3.261774E-2,1.1536399E-1,-3.430203E-1,2.3358338E-1,2.1598108E-1,9.4801076E-2,-3.1863695E-1,1.810471E-1],"split_indices":[4,3,0,3,0,1,0,3,2,4,1,2,0,0,0,0,0,0,0,0,0,0,0,0,0],"split_type":[0,0,0,0,0,0,0,0,0,0,0,0,0,0,0,0,0,0,0,0,0,0,0,0,0],"sum_hessian":[7.5271014E2,6.746158E2,7.809432E1,5.33256E2,1.413598E2,7.61529E1,1.9414233E0,2.1387831E2,3.193777E2,1.3279814E2,8.561667E0,6.463475E1,1.1518148E1,1.9204105E1,1.9467421E2,1.4135318E2,1.780245E2,2.9262999E1,1.0353514E2,5.775949E0,2.7857182E0,4.2730766E1,2.1903984E1,4.5235777E0,6.9945703E0],"tree_param":{"num_deleted":"0","num_feature":"12","num_nodes":"25","size_leaf_vector":"1"}},{"base_weights":[6.0455687E-3,-5.061239E-1,8.900089E-2,-5.992045E-1,7.7124435E-1,2.4479629E-1,-1.3488296E-1,3.7936962E-1,-6.789208E-1,9.7568005E-1,-4.798704E-2,-3.3178473E-1,3.654183E-1,-2.900527E-1,6.7670625E-1,1.4501241E-1,-1.2843142E-1,-1.647205E-1,-1.4906788E-2,4.6155557E-2,2.1786892E-1,-8.834118E-2,1.4936648E-1,8.944898E-2,-4.0626414E-2,9.004219E-2,-8.452438E-2,6.55592E-2,2.3208442E-1],"categories":[],"categories_nodes":[],"categories_segments":[],"categories_sizes":[],"default_left":[0,1,1,0,0,0,0,1,1,0,0,1,1,0,0,0,0,0,0,0,0,0,0,0,0,0,0,0,0],"id":10,"left_children":[1,3,5,7,9,11,13,15,17,19,-1,21,23,25,27,-1,-1,-1,-1,-1,-1,-1,-1,-1,-1,-1,-1,-1,-1],"loss_changes":[3.1256626E1,1.2654919E1,2.2114319E1,7.757744E0,1.764308E0,2.6108065E1,3.299108E1,3.2496316E0,7.7440224E0,2.8665638E-1,0E0,8.056492E0,1.4488747E1,2.1712975E1,6.7245655E0,0E0,0E0,0E0,0E0,0E0,0E0,0E0,0E0,0E0,0E0,0E0,0E0,0E0,0E0],"parents":[2147483647,0,0,1,1,2,2,3,3,4,4,5,5,6,6,7,7,8,8,9,9,11,11,12,12,13,13,14,14],"right_children":[2,4,6,8,10,12,14,16,18,20,-1,22,24,26,28,-1,-1,-1,-1,-1,-1,-1,-1,-1,-1,-1,-1,-1,-1],"split_conditions":[-1.038294E0,1.4010316E0,1.4452325E-1,-1.3886317E0,1.0899279E0,-1.2872276E0,1.4774746E0,7.07232E-1,7.9661E-1,-7.5082237E-1,-4.798704E-2,1.4556556E0,1.103491E0,-1.0684843E0,1.8982915E0,1.4501241E-1,-1.2843142E-1,-1.647205E-1,-1.4906788E-2,4.6155557E-2,2.1786892E-1,-8.834118E-2,1.4936648E-1,8.944898E-2,-4.0626414E-2,9.004219E-2,-8.452438E-2,6.55592E-2,2.3208442E-1],"split_indices":[4,3,2,3,9,2,2,9,0,0,0,4,0,0,2,0,0,0,0,0,0,0,0,0,0,0,0,0,0],"split_type":[0,0,0,0,0,0,0,0,0,0,0,0,0,0,0,0,0,0,0,0,0,0,0,0,0,0,0,0,0],"sum_hessian":[7.3361163E2,1.0154814E2,6.320635E2,9.514587E1,6.4022775E0,3.726511E2,2.5941238E2,6.8837695E0,8.826209E1,5.3547792E0,1.0474983E0,6.4168915E1,3.0848218E2,2.1831483E2,4.1097546E1,5.360091E0,1.5236783E0,7.092173E1,1.7340364E1,1.1100951E0,4.2446837E0,5.8770172E1,5.3987403E0,2.698573E2,3.8624897E1,3.2794567E1,1.8552028E2,2.4850344E1,1.6247202E1],"tree_param":{"num_deleted":"0","num_feature":"12","num_nodes":"29","size_leaf_vector":"1"}},{"base_weights":[5.414028E-3,-7.609636E-2,4.726005E-1,-1.3205211E-1,6.0052156E-1,5.289897E-1,-1.2308539E0,4.199627E-1,-2.2396454E-1,6.9188344E-1,-6.660887E-1,6.2794465E-1,-1.5392947E-1,-3.4958598E-1,-9.968304E-3,-1.3906613E-1,1.04090035E-1,-2.634104E-3,-8.0269404E-2,9.089846E-2,2.2073019E-1,4.806988E-2,-2.3000458E-1,3.8752403E-2,1.5322468E-1,-2.938943E-1,1.9811814E-1],"categories":[],"categories_nodes":[],"categories_segments":[],"categories_sizes":[],"default_left":[1,1,1,0,1,1,0,0,1,0,1,0,0,0,0,0,0,0,0,0,0,0,0,0,0,0,0],"id":11,"left_children":[1,3,5,7,9,11,13,15,17,19,21,23,25,-1,-1,-1,-1,-1,-1,-1,-1,-1,-1,-1,-1,-1,-1],"loss_changes":[2.7433878E1,2.3305088E1,1.0930893E1,2.8883102E1,5.9040146E0,7.1442966E0,2.1904979E0,9.477835E0,1.8207113E1,3.8349094E0,1.888069E0,5.328274E0,2.2537994E1,0E0,0E0,0E0,0E0,0E0,0E0,0E0,0E0,0E0,0E0,0E0,0E0,0E0,0E0],"parents":[2147483647,0,0,1,1,2,2,3,3,4,4,5,5,6,6,7,7,8,8,9,9,10,10,11,11,12,12],"right_children":[2,4,6,8,10,12,14,16,18,20,22,24,26,-1,-1,-1,-1,-1,-1,-1,-1,-1,-1,-1,-1,-1,-1],"split_conditions":[9.6157813E-1,1.3004626E0,1.9852326E0,-9.8195297E-1,1.5008856E0,1.1628879E0,-6.8308884E-1,-1.446187E0,-2.611521E-1,1.7700996E0,3.8161382E-1,-6.286196E-1,-3.3954468E-1,-3.4958598E-1,-9.968304E-3,-1.3906613E-1,1.04090035E-1,-2.634104E-3,-8.0269404E-2,9.089846E-2,2.2073019E-1,4.806988E-2,-2.3000458E-1,3.8752403E-2,1.5322468E-1,-2.938943E-1,1.9811814E-1],"split_indices":[4,3,0,3,0,1,1,0,2,3,11,10,0,0,0,0,0,0,0,0,0,0,0,0,0,0,0],"split_type":[0,0,0,0,0,0,0,0,0,0,0,0,0,0,0,0,0,0,0,0,0,0,0,0,0,0,0],"sum_hessian":[7.184726E2,6.1245435E2,1.0601827E2,5.6641693E2,4.6037376E1,1.0328859E2,2.7296832E0,8.033937E1,4.8607758E2,4.3363293E1,2.6740868E0,9.028657E1,1.3002025E1,1.5646253E0,1.1650578E0,6.1509933E0,7.418838E1,2.2261058E2,2.6346698E2,2.884018E1,1.4523111E1,1.1059389E0,1.5681479E0,2.2376814E1,6.790975E1,5.9169755E0,7.085049E0],"tree_param":{"num_deleted":"0","num_feature":"12","num_nodes":"27","size_leaf_vector":"1"}},{"base_weights":[4.836131E-3,-3.1126094E-1,1.0399866E-1,7.11554E-1,-3.7772712E-1,3.0833565E-2,5.380095E-1,5.326764E-1,-7.063464E-1,-5.4462975E-1,2.991601E-1,4.4865134E-1,-7.0019975E-2,7.127253E-1,-5.8854777E-1,-1.8337528E-1,5.3432744E-2,-1.4871183E-4,-1.4343213E-1,-1.5567474E-1,4.3982586E-1,1.116331E-1,-5.8992494E-2,-2.2737725E-2,1.615586E-1,1.8882042E-1,3.2392453E-2,-2.8058884E-1,1.9045791E-1],"categories":[],"categories_nodes":[],"categories_segments":[],"categories_sizes":[],"default_left":[0,0,1,0,1,0,1,0,0,0,1,1,1,1,0,0,0,0,0,0,0,0,0,0,0,0,0,0,0],"id":12,"left_children":[1,3,5,7,9,11,13,-1,15,17,19,21,23,25,27,-1,-1,-1,-1,-1,-1,-1,-1,-1,-1,-1,-1,-1,-1],"loss_changes":[2.2035803E1,1.16816845E1,1.6975098E1,3.1190536E1,1.8045555E1,1.9371433E1,1.5601181E1,0E0,1.6641896E0,1.1948132E1,6.7133194E1,7.443306E0,1.4297452E1,8.414238E0,1.5018764E1,0E0,0E0,0E0,0E0,0E0,0E0,0E0,0E0,0E0,0E0,0E0,0E0,0E0,0E0],"parents":[2147483647,0,0,1,1,2,2,3,3,4,4,5,5,6,6,8,8,9,9,10,10,11,11,12,12,13,13,14,14],"right_children":[2,4,6,8,10,12,14,-1,16,18,20,22,24,26,28,-1,-1,-1,-1,-1,-1,-1,-1,-1,-1,-1,-1,-1,-1],"split_conditions":[-6.359035E-1,-1.6313331E0,9.5223546E-1,-4.305273E-1,8.117713E-1,-8.332521E-1,1.2564905E0,5.326764E-1,7.581849E-1,-5.4211175E-1,3.295166E-1,1.0684713E0,1.6675292E0,4.8395696E-1,-2.017164E-1,-1.8337528E-1,5.3432744E-2,-1.4871183E-4,-1.4343213E-1,-1.5567474E-1,4.3982586E-1,1.116331E-1,-5.8992494E-2,-2.2737725E-2,1.615586E-1,1.8882042E-1,3.2392453E-2,-2.8058884E-1,1.9045791E-1],"split_indices":[4,1,3,0,0,3,0,0,3,1,1,7,2,1,1,0,0,0,0,0,0,0,0,0,0,0,0,0,0],"split_type":[0,0,0,0,0,0,0,0,0,0,0,0,0,0,0,0,0,0,0,0,0,0,0,0,0,0,0,0,0],"sum_hessian":[7.009762E2,1.6687988E2,5.340963E2,9.590529E0,1.5728937E2,4.579642E2,7.613209E1,3.6658542E0,5.924675E0,1.26334076E2,3.095528E1,8.837873E1,3.6958548E2,6.622821E1,9.903876E0,4.91906E0,1.0056146E0,3.0666208E1,9.566787E1,2.012951E1,1.082577E1,7.725112E1,1.112761E1,3.529002E2,1.6685272E1,4.6133324E1,2.0094887E1,6.537845E0,3.3660307E0],"tree_param":{"num_deleted":"0","num_feature":"12","num_nodes":"29","size_leaf_vector":"1"}},{"base_weights":[4.990726E-3,-4.8479278E-2,5.0897753E-1,1.1971888E-1,-2.2988215E-1,6.2099487E-1,-1.5739053E-1,-4.2835975E-1,2.7109632E-1,-3.3802983E-1,4.2337704E-1,6.825099E-1,-1.5411954E-1,-1.0353532E0,8.843988E-1,6.916199E-2,-1.1240286E-1,9.356495E-2,4.5068264E-3,6.624939E-2,-8.862141E-2,1.9023661E-1,3.0179802E-2,1.7444299E-1,6.512232E-2,2.3413137E-2,-2.576133E-1,2.8330699E-2,2.0534943E-1],"categories":[],"categories_nodes":[],"categories_segments":[],"categories_sizes":[],"default_left":[1,0,1,0,1,1,0,0,0,0,0,1,0,1,0,0,0,0,0,0,0,0,0,0,0,0,0,0,0],"id":13,"left_children":[1,3,5,7,9,11,13,15,17,19,21,23,-1,25,27,-1,-1,-1,-1,-1,-1,-1,-1,-1,-1,-1,-1,-1,-1],"loss_changes":[1.8601377E1,1.9071087E1,5.0398026E0,2.7040106E1,2.1381874E1,5.39526E0,1.0360134E1,7.501464E0,1.2453667E1,1.8324724E1,6.061226E0,3.4400864E0,0E0,1.9168591E0,4.108591E-1,0E0,0E0,0E0,0E0,0E0,0E0,0E0,0E0,0E0,0E0,0E0,0E0,0E0,0E0],"parents":[2147483647,0,0,1,1,2,2,3,3,4,4,5,5,6,6,7,7,8,8,9,9,10,10,11,11,13,13,14,14],"right_children":[2,4,6,8,10,12,14,16,18,20,22,24,-1,26,28,-1,-1,-1,-1,-1,-1,-1,-1,-1,-1,-1,-1,-1,-1],"split_conditions":[1.2323426E0,5.6368098E-2,1.1628879E0,-1.2374929E0,1.4774746E0,1.9852326E0,-3.3954468E-1,-9.188311E-1,-3.788374E-1,-1.1525384E0,-4.0469694E-1,4.1549227E-1,-1.5411954E-1,-5.777712E-1,-5.798443E-1,6.916199E-2,-1.1240286E-1,9.356495E-2,4.5068264E-3,6.624939E-2,-8.862141E-2,1.9023661E-1,3.0179802E-2,1.7444299E-1,6.512232E-2,2.3413137E-2,-2.576133E-1,2.8330699E-2,2.0534943E-1],"split_indices":[4,2,1,2,2,0,0,3,2,0,3,2,0,9,6,0,0,0,0,0,0,0,0,0,0,0,0,0,0],"split_type":[0,0,0,0,0,0,0,0,0,0,0,0,0,0,0,0,0,0,0,0,0,0,0,0,0,0,0,0,0],"sum_hessian":[6.8834906E2,6.231413E2,6.520777E1,3.2351538E2,2.9962595E2,5.5882023E1,9.325749E0,6.961973E1,2.5389565E2,2.574821E2,4.2143856E1,5.4004322E1,1.8777008E0,5.064145E0,4.2616043E0,1.0016076E1,5.9603653E1,1.4123268E2,1.1266296E2,3.4647373E1,2.228347E2,1.3500918E1,2.8642937E1,3.4318733E1,1.9685593E1,1.0073249E0,4.05682E0,1.0062598E0,3.2553446E0],"tree_param":{"num_deleted":"0","num_feature":"12","num_nodes":"29","size_leaf_vector":"1"}},{"base_weights":[4.937948E-3,-3.2470442E-2,7.496664E-1,-2.1978982E-1,1.1093232E-1,-1.0259702E-1,8.135085E-1,-5.0661143E-2,-5.29879E-1,3.2078207E-1,-1.8470591E-2,8.8569295E-1,-6.354361E-2,-9.9270515E-2,2.5593067E-2,-1.3151808E-1,1.2855142E-1,7.424407E-2,-1.01176515E-1,-5.849136E-2,5.974513E-2,1.13003545E-1,2.2672229E-1],"categories":[],"categories_nodes":[],"categories_segments":[],"categories_sizes":[],"default_left":[1,0,0,1,0,0,1,1,0,1,1,0,0,0,0,0,0,0,0,0,0,0,0],"id":14,"left_children":[1,3,5,7,9,-1,11,13,15,17,19,21,-1,-1,-1,-1,-1,-1,-1,-1,-1,-1,-1],"loss_changes":[1.8853128E1,1.7336777E1,3.026413E0,1.4646733E1,9.936598E0,0E0,2.8287468E0,1.4564924E1,1.5194836E1,6.0062275E0,1.9828844E1,1.7118168E0,0E0,0E0,0E0,0E0,0E0,0E0,0E0,0E0,0E0,0E0,0E0],"parents":[2147483647,0,0,1,1,2,2,3,3,4,4,6,6,7,7,8,8,9,9,10,10,11,11],"right_children":[2,4,6,8,10,-1,12,14,16,18,20,22,-1,-1,-1,-1,-1,-1,-1,-1,-1,-1,-1],"split_conditions":[1.5108887E0,-1.13067225E-1,-1.9470549E0,1.3168019E-1,-2.699058E-1,-1.0259702E-1,2.0819998E0,-1.1263655E0,1.8982915E0,1.6266595E0,4.361055E-1,1.7700996E0,-6.354361E-2,-9.9270515E-2,2.5593067E-2,-1.3151808E-1,1.2855142E-1,7.424407E-2,-1.01176515E-1,-5.849136E-2,5.974513E-2,1.13003545E-1,2.2672229E-1],"split_indices":[3,4,0,2,3,0,0,2,2,5,3,3,0,0,0,0,0,0,0,0,0,0,0],"split_type":[0,0,0,0,0,0,0,0,0,0,0,0,0,0,0,0,0,0,0,0,0,0,0],"sum_hessian":[6.7485785E2,6.434911E2,3.1366747E1,2.7878998E2,3.647011E2,1.1710395E0,3.0195707E1,1.8115039E2,9.763957E1,1.3854575E2,2.2615538E2,2.8588503E1,1.6072043E0,5.132086E1,1.2982954E2,8.844615E1,9.19342E0,1.3109785E2,7.4478846E0,1.21384476E2,1.04770905E2,1.3894903E1,1.46936E1],"tree_param":{"num_deleted":"0","num_feature":"12","num_nodes":"23","size_leaf_vector":"1"}},{"base_weights":[4.1440707E-3,9.357716E-1,-2.0835448E-2,1.0297405E0,-1.7312516E-2,-1.0278218E-1,2.907479E-1,2.1546005E-1,3.7012488E-2,-5.3296316E-1,-3.9905503E-2,5.100274E-1,3.8044978E-2,-2.6948828E-2,-1.5351523E-1,-1.2812458E-2,1.8614845E-1,-6.649377E-2,1.3789798E-1,-1.956853E-2,1.6784339E-1],"categories":[],"categories_nodes":[],"categories_segments":[],"categories_sizes":[],"default_left":[0,1,1,0,0,0,1,0,0,0,1,0,0,0,0,0,0,0,0,0,0],"id":15,"left_children":[1,3,5,7,-1,9,11,-1,-1,13,15,17,19,-1,-1,-1,-1,-1,-1,-1,-1],"loss_changes":[1.544331E1,1.7538481E0,1.6535725E1,4.4128036E-1,0E0,1.3842949E1,7.454294E0,0E0,0E0,5.995907E0,1.0570946E1,1.1135309E1,7.021652E0,0E0,0E0,0E0,0E0,0E0,0E0,0E0,0E0],"parents":[2147483647,0,0,1,1,2,2,3,3,5,5,6,6,9,9,10,10,11,11,12,12],"right_children":[2,4,6,8,-1,10,12,-1,-1,14,16,18,20,-1,-1,-1,-1,-1,-1,-1,-1],"split_conditions":[-1.673448E0,1.3657718E0,7.581849E-1,1.7834251E0,-1.7312516E-2,-1.038294E0,1.0924207E-1,2.1546005E-1,3.7012488E-2,-4.6522292E-1,2.0455887E0,-1.1180414E0,1.6831871E0,-2.6948828E-2,-1.5351523E-1,-1.2812458E-2,1.8614845E-1,-6.649377E-2,1.3789798E-1,-1.956853E-2,1.6784339E-1],"split_indices":[3,0,3,10,0,4,2,0,0,3,4,0,3,0,0,0,0,0,0,0,0],"split_type":[0,0,0,0,0,0,0,0,0,0,0,0,0,0,0,0,0,0,0,0,0],"sum_hessian":[6.617738E2,1.6328545E1,6.454453E2,1.4947394E1,1.3811493E0,5.115716E2,1.338737E2,1.3889923E1,1.057472E0,6.428423E1,4.4728735E2,7.113179E1,6.2741913E1,2.4416075E1,3.9868164E1,4.3733722E2,9.950135E0,1.2341479E1,5.879031E1,5.439397E1,8.347943E0],"tree_param":{"num_deleted":"0","num_feature":"12","num_nodes":"21","size_leaf_vector":"1"}},{"base_weights":[4.551857E-3,-9.2086846E-1,2.7837897E-2,-1.0777313E0,1.3170418E-1,2.2812764E-1,-9.961511E-2,5.1500928E-2,-1.2628387E0,-5.207329E-1,3.0811948E-1,2.829277E-1,-1.9636513E-1,-2.9327816E-1,-6.4150944E-2,2.8032866E-1,-3.7431788E-1,-3.3210788E-2,9.381085E-2,3.9900696E-1,-2.0112364E-1,-1.0005416E-1,7.221671E-2],"categories":[],"categories_nodes":[],"categories_segments":[],"categories_sizes":[],"default_left":[0,1,0,1,0,0,0,0,0,1,0,0,1,0,0,0,0,0,0,0,0,0,0],"id":16,"left_children":[1,3,5,7,-1,9,11,-1,13,15,17,19,21,-1,-1,-1,-1,-1,-1,-1,-1,-1,-1],"loss_changes":[1.40875025E1,4.6850643E0,1.6296417E1,4.0265884E0,0E0,1.5029147E1,1.450028E1,0E0,2.0842476E0,6.579612E1,1.7239267E1,1.7671382E2,5.3052322E1,0E0,0E0,0E0,0E0,0E0,0E0,0E0,0E0,0E0,0E0],"parents":[2147483647,0,0,1,1,2,2,3,3,5,5,6,6,8,8,9,9,10,10,11,11,12,12],"right_children":[2,4,6,8,-1,10,12,-1,14,16,18,20,22,-1,-1,-1,-1,-1,-1,-1,-1,-1,-1],"split_conditions":[-2.0829518E0,1.5525775E0,-2.0189244E-1,-1.1672328E0,1.3170418E-1,-1.3205252E0,-8.2446057E-1,5.1500928E-2,6.272865E-1,-2.3569936E-2,-6.560661E-1,-2.3669428E-1,3.399701E-1,-2.9327816E-1,-6.4150944E-2,2.8032866E-1,-3.7431788E-1,-3.3210788E-2,9.381085E-2,3.9900696E-1,-2.0112364E-1,-1.0005416E-1,7.221671E-2],"split_indices":[2,4,2,10,0,0,1,0,1,1,1,0,0,0,0,0,0,0,0,0,0,0,0],"split_type":[0,0,0,0,0,0,0,0,0,0,0,0,0,0,0,0,0,0,0,0,0,0,0],"sum_hessian":[6.5154175E2,1.5046009E1,6.364957E2,1.39756E1,1.070409E0,2.4721407E2,3.8928165E2,1.653963E0,1.2321637E1,2.3326672E1,2.238874E2,7.8191925E1,3.1108972E2,9.674723E0,2.646915E0,9.611355E0,1.3715318E1,5.6724422E1,1.6716298E2,3.3341877E1,4.485005E1,2.0139648E2,1.0969324E2],"tree_param":{"num_deleted":"0","num_feature":"12","num_nodes":"23","size_leaf_vector":"1"}},{"base_weights":[3.421145E-3,-9.591637E-2,2.0109901E-1,2.3809442E-1,-1.7174685E-1,6.1171156E-1,1.1277E-1,1.5654827E0,-1.1626177E0,-4.0804464E-1,3.1054816E-1,7.5677824E-1,-4.2158487E-1,2.3551507E-2,5.414447E-1,3.8510397E-1,8.388935E-2,-9.096181E-2,-2.8859663E-1,1.2868883E-2,-1.7437173E-1,-1.4211969E-1,3.44899E-1,1.8782882E-2,1.944152E-1,-2.7549994E-1,1.7581122E-1,3.7815623E-2,-5.0323732E-2,1.3996701E-1,-9.535498E-2],"categories":[],"categories_nodes":[],"categories_segments":[],"categories_sizes":[],"default_left":[1,0,0,0,1,1,1,0,1,1,1,1,0,1,1,0,0,0,0,0,0,0,0,0,0,0,0,0,0,0,0],"id":17,"left_children":[1,3,5,7,9,11,13,15,17,19,21,23,25,27,29,-1,-1,-1,-1,-1,-1,-1,-1,-1,-1,-1,-1,-1,-1,-1,-1],"loss_changes":[1.2669969E1,1.0917944E1,7.757433E0,1.5033371E2,4.007926E1,6.0114584E0,6.8260574E0,1.629026E1,7.1701355E0,5.17028E1,1.6848999E2,4.7121735E0,7.821964E0,6.836665E0,5.29434E0,0E0,0E0,0E0,0E0,0E0,0E0,0E0,0E0,0E0,0E0,0E0,0E0,0E0,0E0,0E0,0E0],"parents":[2147483647,0,0,1,1,2,2,3,3,4,4,5,5,6,6,7,7,8,8,9,9,10,10,11,11,12,12,13,13,14,14],"right_children":[2,4,6,8,10,12,14,16,18,20,22,24,26,28,30,-1,-1,-1,-1,-1,-1,-1,-1,-1,-1,-1,-1,-1,-1,-1,-1],"split_conditions":[3.653853E-1,-9.2041516E-1,-7.2643405E-1,-7.527879E-2,4.2332125E-1,1.2312462E0,9.3609154E-1,-4.257607E-1,3.1006125E-1,1.6739844E-1,3.8554066E-1,-8.037822E-1,-3.6005718E-1,2.861319E-1,1.2422523E0,3.8510397E-1,8.388935E-2,-9.096181E-2,-2.8859663E-1,1.2868883E-2,-1.7437173E-1,-1.4211969E-1,3.44899E-1,1.8782882E-2,1.944152E-1,-2.7549994E-1,1.7581122E-1,3.7815623E-2,-5.0323732E-2,1.3996701E-1,-9.535498E-2],"split_indices":[4,1,3,0,0,0,3,0,0,1,1,6,1,2,1,0,0,0,0,0,0,0,0,0,0,0,0,0,0,0,0],"split_type":[0,0,0,0,0,0,0,0,0,0,0,0,0,0,0,0,0,0,0,0,0,0,0,0,0,0,0,0,0,0,0],"sum_hessian":[6.4323236E2,4.2844437E2,2.1478801E2,7.887659E1,3.4956778E2,3.6975536E1,1.7781247E2,4.0437885E1,3.8438698E1,2.3472133E2,1.14846466E2,3.265819E1,4.3173437E0,1.4805357E2,2.9758904E1,3.0253372E1,1.0184513E1,1.1649829E1,2.678887E1,1.1671241E2,1.1800891E2,6.69749E1,4.7871567E1,8.358881E0,2.429931E1,2.4543846E0,1.8629593E0,9.26397E1,5.5413868E1,2.602348E1,3.7354238E0],"tree_param":{"num_deleted":"0","num_feature":"12","num_nodes":"31","size_leaf_vector":"1"}},{"base_weights":[3.201413E-3,-2.6833195E-2,6.663483E-1,5.8626467E-1,-6.1978433E-2,7.3477817E-1,-6.339912E-2,-3.7293854E-1,8.0119795E-1,-5.448438E-1,-1.6720748E-2,-6.286592E-2,7.996046E-1,1.6447617E-1,-2.823107E-1,-7.2175674E-2,1.7381454E-1,-1.2268364E-1,1.5591793E-1,-1.103678E-2,1.2848401E-1,2.0578992E-1,8.457962E-2],"categories":[],"categories_nodes":[],"categories_segments":[],"categories_sizes":[],"default_left":[1,0,1,0,0,0,0,1,0,1,1,0,1,0,0,0,0,0,0,0,0,0,0],"id":18,"left_children":[1,3,5,7,9,11,-1,13,15,17,19,-1,21,-1,-1,-1,-1,-1,-1,-1,-1,-1,-1],"loss_changes":[1.2577794E1,1.30561695E1,2.0741005E0,7.0723677E0,1.2499418E1,2.0116386E0,0E0,9.474654E0,2.4557686E0,4.930228E0,1.3329494E1,0E0,1.6952829E0,0E0,0E0,0E0,0E0,0E0,0E0,0E0,0E0,0E0,0E0],"parents":[2147483647,0,0,1,1,2,2,3,3,4,4,5,5,7,7,8,8,9,9,10,10,12,12],"right_children":[2,4,6,8,10,12,-1,14,16,18,20,-1,22,-1,-1,-1,-1,-1,-1,-1,-1,-1,-1],"split_conditions":[1.5108887E0,-1.3886317E0,2.0819998E0,-9.9964374E-1,-1.2427301E0,-1.9470549E0,-6.339912E-2,6.1972404E-1,-1.9687674E0,1.8023533E0,1.614898E0,-6.286592E-2,3.0400273E-1,1.6447617E-1,-2.823107E-1,-7.2175674E-2,1.7381454E-1,-1.2268364E-1,1.5591793E-1,-1.103678E-2,1.2848401E-1,2.0578992E-1,8.457962E-2],"split_indices":[3,3,0,0,4,0,0,1,1,8,2,0,2,0,0,0,0,0,0,0,0,0,0],"split_type":[0,0,0,0,0,0,0,0,0,0,0,0,0,0,0,0,0,0,0,0,0,0,0],"sum_hessian":[6.296014E2,6.032396E2,2.6361809E1,3.1855146E1,5.7138446E2,2.4883001E1,1.4788064E0,5.6967196E0,2.6158428E1,4.801902E1,5.233654E2,1.2241043E0,2.3658897E1,2.7453501E0,2.9513693E0,1.2053266E0,2.49531E1,4.616558E1,1.8534418E0,4.9537488E2,2.799056E1,1.3629561E1,1.0029336E1],"tree_param":{"num_deleted":"0","num_feature":"12","num_nodes":"23","size_leaf_vector":"1"}},{"base_weights":[3.5992053E-3,-6.423237E-1,3.1437654E-2,-7.8979236E-1,3.5973337E-1,2.6345113E-1,-7.860915E-2,-9.575184E-1,1.3208577E-1,-1.7658009E-1,2.5234684E-1,-6.485433E-2,4.1245195E-1,-1.3420336E-1,3.9691973E-1,-5.4028906E-2,-2.3806913E-1,5.895389E-3,-1.7137927E-1,-7.1151204E-2,1.00247E-1,5.751143E-4,-6.876707E-2,3.662919E-2,1.6902566E-1],"categories":[],"categories_nodes":[],"categories_segments":[],"categories_sizes":[],"default_left":[0,1,0,0,0,0,1,1,0,0,0,0,0,1,1,0,0,0,0,0,0,0,0,0,0],"id":19,"left_children":[1,3,5,7,9,11,13,15,-1,-1,-1,17,19,21,23,-1,-1,-1,-1,-1,-1,-1,-1,-1,-1],"loss_changes":[1.1219352E1,4.0936995E0,1.5289965E1,6.174796E0,5.59103E0,9.449709E0,1.0797318E1,3.0123634E0,0E0,0E0,0E0,4.5826087E0,9.224293E0,1.0478607E1,3.9453945E0,0E0,0E0,0E0,0E0,0E0,0E0,0E0,0E0,0E0,0E0],"parents":[2147483647,0,0,1,1,2,2,3,3,4,4,5,5,6,6,7,7,11,11,12,12,13,13,14,14],"right_children":[2,4,6,8,10,12,14,16,-1,-1,-1,18,20,22,24,-1,-1,-1,-1,-1,-1,-1,-1,-1,-1],"split_conditions":[-1.8450619E0,9.621547E-1,-3.3209726E-1,1.4556556E0,-1.8224625E-1,-1.0926026E0,1.4774746E0,-2.794595E-1,1.3208577E-1,-1.7658009E-1,2.5234684E-1,2.0021105E0,-1.3205252E0,4.1549227E-1,4.7085628E-1,-5.4028906E-2,-2.3806913E-1,5.895389E-3,-1.7137927E-1,-7.1151204E-2,1.00247E-1,5.751143E-4,-6.876707E-2,3.662919E-2,1.6902566E-1],"split_indices":[2,0,2,4,1,2,2,1,0,0,0,6,0,2,3,0,0,0,0,0,0,0,0,0,0],"split_type":[0,0,0,0,0,0,0,0,0,0,0,0,0,0,0,0,0,0,0,0,0,0,0,0,0],"sum_hessian":[6.21816E2,2.478015E1,5.970358E2,2.1785843E1,2.9943056E0,1.9162845E2,4.0540735E2,1.9831917E1,1.9539269E0,1.2682657E0,1.7260398E0,5.9996998E1,1.3163144E2,3.6361484E2,4.179253E1,5.564417E0,1.4267499E1,5.4472206E1,5.524792E0,1.3325308E1,1.1830614E2,2.2044894E2,1.431659E2,2.9250214E1,1.2542316E1],"tree_param":{"num_deleted":"0","num_feature":"12","num_nodes":"25","size_leaf_vector":"1"}}]},"name":"gbtree"},"learner_model_param":{"base_score":"[5.2375E-1]","boost_from_average":"1","num_class":"0","num_feature":"12","num_target":"1"},"objective":{"name":"binary:logistic","reg_loss_param":{"scale_pos_weight":"1"}}},"version":[3,3,0]}