{"learner":{"attributes":{},"feature_names":[],"feature_types":[],"gradient_booster":{"model":{"cats":{"enc":[],"feature_segments":[],"sorted_idx":[]},"gbtree_model_param":{"num_parallel_tree":"1","num_trees":"20"},"iteration_indptr":[0,1,2,3,4,5,6,7,8,9,10,11,12,13,14,15,16,17,18,19,20],"tree_info":[0,0,0,0,0,0,0,0,0,0,0,0,0,0,0,0,0,0,0,0],"trees":[{"base_weights":[-1.9645995E-10,3.5731568E0,-1.401056E-1,5.576951E0,2.6698766E0,-3.1889418E-1,2.7290425E0,1.396374E0,4.594932E0,2.7780323E0,-7.825976E-1,-1.1379474E0,7.918697E-2,2.1330354E0,4.9535575E0,4.5964232E-1,1.0146707E0,6.4599437E-1,3.4429893E-1,-2.7974507E-1,1.06578544E-1,-1.2368416E-1,-3.3305156E-1,1.2742467E-1,-9.377011E-2,2.5608185E-1,5.9428704E-1,8.080454E-1,1.2401155E0],"categories":[],"categories_nodes":[],"categories_segments":[],"categories_sizes":[],"default_left":[0,0,1,0,1,0,0,0,0,0,0,1,0,0,0,0,0,0,0,0,0,0,0,0,0,0,0,0,0],"id":0,"left_children":[1,3,5,7,9,11,13,-1,15,17,19,21,23,25,27,-1,-1,-1,-1,-1,-1,-1,-1,-1,-1,-1,-1,-1,-1],"loss_changes":[2.0034784E3,2.5841833E2,1.976321E3,3.1383057E1,4.1754883E1,1.1823462E3,2.8907068E2,0E0,2.1304321E1,4.3621216E1,3.9874103E0,3.2387708E2,7.466834E2,1.2486688E2,2.8478638E1,0E0,0E0,0E0,0E0,0E0,0E0,0E0,0E0,0E0,0E0,0E0,0E0,0E0,0E0],"parents":[2147483647,0,0,1,1,2,2,3,3,4,4,5,5,6,6,8,8,9,9,10,10,11,11,12,12,13,13,14,14],"right_children":[2,4,6,8,10,12,14,-1,16,18,20,22,24,26,28,-1,-1,-1,-1,-1,-1,-1,-1,-1,-1,-1,-1,-1,-1],"split_conditions":[-1.7626665E0,-2.2071311E0,1.5313342E0,-2.586049E0,1.6895065E0,-3.935065E-1,2.2667584E0,1.396374E0,-7.860151E-1,5.7071114E-1,-1.0202194E0,-4.2351305E-2,4.7119595E-2,8.240662E-2,2.6140227E0,4.5964232E-1,1.0146707E0,6.4599437E-1,3.4429893E-1,-2.7974507E-1,1.06578544E-1,-1.2368416E-1,-3.3305156E-1,1.2742467E-1,-9.377011E-2,2.5608185E-1,5.9428704E-1,8.080454E-1,1.2401155E0],"split_indices":[3,3,3,3,1,4,3,0,4,2,0,2,2,4,3,0,0,0,0,0,0,0,0,0,0,0,0,0,0],"split_type":[0,0,0,0,0,0,0,0,0,0,0,0,0,0,0,0,0,0,0,0,0,0,0,0,0,0,0,0,0],"sum_hessian":[4E3,1.5E2,3.85E3,4.5E1,1.05E2,3.625E3,2.25E2,1.6E1,2.9E1,1.02E2,3E0,1.185E3,2.44E3,1.79E2,4.6E1,6E0,2.3E1,7E1,3.2E1,2E0,1E0,5.98E2,5.87E2,1.209E3,1.231E3,9E1,8.9E1,2.9E1,1.7E1],"tree_param":{"num_deleted":"0","num_feature":"12","num_nodes":"29","size_leaf_vector":"1"}},{"base_weights":[1.5404244E-3,2.0693138E0,-1.7390403E-1,4.5239673E0,1.6402714E0,-3.8937646E-1,1.7370064E0,5.6676354E0,3.7250896E0,1.3419505E0,2.5329814E0,-7.472221E-1,3.0261284E-1,1.2640684E0,3.5447793E0,1.2107438E0,5.7988703E-1,3.8084647E-1,8.2019216E-1,3.57479E-1,1.4790489E-1,5.416096E-1,-2.8887598E-2,-5.845325E-2,-2.3272865E-1,1.5801603E-1,-1.9228136E-2,1.1624562E-1,3.2017043E-1,8.1699544E-1,4.5155367E-1],"categories":[],"categories_nodes":[],"categories_segments":[],"categories_sizes":[],"default_left":[0,0,1,0,0,1,0,0,0,1,1,1,0,0,1,0,0,0,0,0,0,0,0,0,0,0,0,0,0,0,0],"id":1,"left_children":[1,3,5,7,9,11,13,15,17,19,21,23,25,27,29,-1,-1,-1,-1,-1,-1,-1,-1,-1,-1,-1,-1,-1,-1,-1,-1],"loss_changes":[1.4518403E3,3.2221545E2,1.5196166E3,2.0915527E1,6.797296E1,8.2135187E2,3.1527588E2,6.164551E-1,1.27230835E1,5.315265E1,3.1327118E1,4.1380457E2,2.1991895E2,6.760043E1,4.4310608E1,0E0,0E0,0E0,0E0,0E0,0E0,0E0,0E0,0E0,0E0,0E0,0E0,0E0,0E0,0E0,0E0],"parents":[2147483647,0,0,1,1,2,2,3,3,4,4,5,5,6,6,7,7,8,8,9,9,10,10,11,11,12,12,13,13,14,14],"right_children":[2,4,6,8,10,12,14,16,18,20,22,24,26,28,30,-1,-1,-1,-1,-1,-1,-1,-1,-1,-1,-1,-1,-1,-1,-1,-1],"split_conditions":[-1.3975393E0,-2.2071311E0,1.3000697E0,-2.586049E0,8.846233E-1,3.6507857E-1,2.0527146E0,9.270474E-1,-7.860151E-1,-1.0014745E-1,1.7117318E0,-1.0645234E-1,-7.376006E-2,-4.1620487E-1,2.9143924E-1,1.2107438E0,5.7988703E-1,3.8084647E-1,8.2019216E-1,3.57479E-1,1.4790489E-1,5.416096E-1,-2.8887598E-2,-5.845325E-2,-2.3272865E-1,1.5801603E-1,-1.9228136E-2,1.1624562E-1,3.2017043E-1,8.1699544E-1,4.5155367E-1],"split_indices":[3,3,3,3,4,4,3,10,4,2,0,2,2,4,2,0,0,0,0,0,0,0,0,0,0,0,0,0,0,0,0],"split_type":[0,0,0,0,0,0,0,0,0,0,0,0,0,0,0,0,0,0,0,0,0,0,0,0,0,0,0,0,0,0,0],"sum_hessian":[4E3,3.12E2,3.688E3,4.5E1,2.67E2,3.315E3,3.73E2,1.6E1,2.9E1,2.02E2,6.5E1,2.185E3,1.13E3,2.97E2,7.6E1,1.3E1,3E0,6E0,2.3E1,1.15E2,8.7E1,6.1E1,4E0,1.045E3,1.14E3,5.08E2,6.22E2,9.9E1,1.98E2,5.2E1,2.4E1],"tree_param":{"num_deleted":"0","num_feature":"12","num_nodes":"31","size_leaf_vector":"1"}},{"base_weights":[2.6225818E-3,1.462324E0,-1.5992752E-1,3.0515997E0,9.9259275E-1,-3.7826467E-1,1.1701808E0,9.278879E-1,2.6510015E0,1.3522907E0,3.8461235E-1,-1.078611E0,-1.1422035E-1,8.3516896E-1,2.6961672E0,1.2285626E-1,5.5754125E-1,-4.2456046E-2,2.9304245E-1,1.8931006E-3,2.5265148E-1,-3.121037E-1,-1.698342E-1,4.766854E-2,-9.5694944E-2,2.4300985E-1,5.476866E-2,4.5400223E-1,8.5967106E-1],"categories":[],"categories_nodes":[],"categories_segments":[],"categories_sizes":[],"default_left":[0,0,1,0,1,0,0,0,0,0,0,0,0,1,0,0,0,0,0,0,0,0,0,0,0,0,0,0,0],"id":2,"left_children":[1,3,5,7,9,11,13,-1,15,17,19,21,23,25,27,-1,-1,-1,-1,-1,-1,-1,-1,-1,-1,-1,-1,-1,-1],"loss_changes":[9.495696E2,2.9633057E2,1.0462164E3,4.5584717E1,6.749231E1,5.7202686E2,2.5744977E2,0E0,1.9169678E1,3.476239E1,3.8553688E1,9.232678E1,2.888081E2,8.880014E1,5.2375854E1,0E0,0E0,0E0,0E0,0E0,0E0,0E0,0E0,0E0,0E0,0E0,0E0,0E0,0E0],"parents":[2147483647,0,0,1,1,2,2,3,3,4,4,5,5,6,6,8,8,9,9,10,10,11,11,12,12,13,13,14,14],"right_children":[2,4,6,8,10,12,14,-1,16,18,20,22,24,26,28,-1,-1,-1,-1,-1,-1,-1,-1,-1,-1,-1,-1,-1,-1],"split_conditions":[-1.2494797E0,-1.9561913E0,1.1025956E0,-2.586049E0,1.1483225E-1,-5.501487E-1,1.993577E0,9.278879E-1,-1.6742147E0,-1.5390445E0,1.0725516E0,-1.3327945E0,1.0433606E-1,1.929303E-1,2.6140227E0,1.2285626E-1,5.5754125E-1,-4.2456046E-2,2.9304245E-1,1.8931006E-3,2.5265148E-1,-3.121037E-1,-1.698342E-1,4.766854E-2,-9.5694944E-2,2.4300985E-1,5.476866E-2,4.5400223E-1,8.5967106E-1],"split_indices":[3,3,3,3,2,4,3,0,1,4,2,4,2,2,3,0,0,0,0,0,0,0,0,0,0,0,0,0,0],"split_type":[0,0,0,0,0,0,0,0,0,0,0,0,0,0,0,0,0,0,0,0,0,0,0,0,0,0,0,0,0],"sum_hessian":[4E3,4E2,3.6E3,9E1,3.1E2,3.093E3,5.07E2,1.6E1,7.4E1,1.94E2,1.16E2,8.46E2,2.247E3,4.17E2,9E1,5E0,6.9E1,1.3E1,1.81E2,8.2E1,3.4E1,2.71E2,5.75E2,1.142E3,1.105E3,2.48E2,1.69E2,7.3E1,1.7E1],"tree_param":{"num_deleted":"0","num_feature":"12","num_nodes":"29","size_leaf_vector":"1"}},{"base_weights":[2.8965764E-3,1.620765E0,-9.302863E-2,2.6051004E0,1.1078101E0,-2.4121544E-1,1.0522972E0,3.7661333E0,2.2327228E0,1.4357771E0,3.8780102E-1,-4.562666E-1,4.0191874E-1,6.397517E-1,1.9485198E0,8.1356925E-1,3.5372075E-1,4.7158787E-1,-2.195834E-2,-3.0976469E-2,3.2207167E-1,1.4017244E-1,-1.7438352E-1,-1.6437557E-2,-1.4450684E-1,1.8003428E-1,4.40167E-2,2.0002735E-1,4.178665E-2,5.0156707E-1,2.3061971E-1],"categories":[],"categories_nodes":[],"categories_segments":[],"categories_sizes":[],"default_left":[0,0,1,0,1,1,0,0,1,0,0,0,0,0,1,0,0,0,0,0,0,0,0,0,0,0,0,0,0,0,0],"id":3,"left_children":[1,3,5,7,9,11,13,15,17,19,21,23,25,27,29,-1,-1,-1,-1,-1,-1,-1,-1,-1,-1,-1,-1,-1,-1,-1,-1],"loss_changes":[6.210834E2,1.10216064E2,6.4146423E2,2.444928E1,3.4627945E1,4.629578E2,1.5884763E2,3.051178E0,1.7858154E1,2.8574753E1,1.9540804E1,2.4975018E2,7.58152E1,4.6058662E1,5.7613464E1,0E0,0E0,0E0,0E0,0E0,0E0,0E0,0E0,0E0,0E0,0E0,0E0,0E0,0E0,0E0,0E0],"parents":[2147483647,0,0,1,1,2,2,3,3,4,4,5,5,6,6,7,7,8,8,9,9,10,10,11,11,12,12,13,13,14,14],"right_children":[2,4,6,8,10,12,14,16,18,20,22,24,26,28,30,-1,-1,-1,-1,-1,-1,-1,-1,-1,-1,-1,-1,-1,-1,-1,-1],"split_conditions":[-1.5583732E0,-2.0514596E0,1.199397E0,-2.586049E0,3.7932047E-1,6.4147395E-1,1.783355E0,9.270474E-1,2.559825E0,-1.5815735E0,6.050415E-1,-1.1526328E-1,-5.238729E-1,1.3487765E-1,1.929303E-1,8.1356925E-1,3.5372075E-1,4.7158787E-1,-2.195834E-2,-3.0976469E-2,3.2207167E-1,1.4017244E-1,-1.7438352E-1,-1.6437557E-2,-1.4450684E-1,1.8003428E-1,4.40167E-2,2.0002735E-1,4.178665E-2,5.0156707E-1,2.3061971E-1],"split_indices":[3,3,3,3,2,4,3,10,0,2,0,2,3,2,2,0,0,0,0,0,0,0,0,0,0,0,0,0,0,0,0],"split_type":[0,0,0,0,0,0,0,0,0,0,0,0,0,0,0,0,0,0,0,0,0,0,0,0,0,0,0,0,0,0,0],"sum_hessian":[4E3,2.23E2,3.777E3,7.5E1,1.48E2,3.345E3,4.32E2,1.6E1,5.9E1,1.01E2,4.7E1,2.507E3,8.38E2,2.97E2,1.35E2,1.3E1,3E0,5.6E1,3E0,1E1,9.1E1,3.8E1,9E0,1.043E3,1.464E3,2.23E2,6.15E2,1.61E2,1.36E2,7.8E1,5.7E1],"tree_param":{"num_deleted":"0","num_feature":"12","num_nodes":"31","size_leaf_vector":"1"}},{"base_weights":[3.0448064E-3,8.4241E-1,-1.4354321E-1,2.005403E0,6.311729E-1,-3.5774684E-1,6.4383E-1,2.7248745E0,1.6068946E0,-4.7433552E-1,7.42998E-1,-9.2242783E-1,-1.5560776E-1,4.1449824E-1,1.5189245E0,9.9854834E-2,5.7222956E-1,3.3573353E-1,-2.6994908E-1,-4.826189E-1,-1.49450665E-2,2.267874E-1,8.734729E-2,-1.2862287E-1,-2.3544471E-1,1.3991195E-2,-9.776107E-2,3.5758834E-2,1.8804249E-1,4.0438136E-1,1.644668E-1],"categories":[],"categories_nodes":[],"categories_segments":[],"categories_sizes":[],"default_left":[0,0,1,0,0,0,0,0,1,0,0,0,1,1,1,0,0,0,0,0,0,0,0,0,0,0,0,0,0,0,0],"id":4,"left_children":[1,3,5,7,9,11,13,15,17,19,21,23,25,27,29,-1,-1,-1,-1,-1,-1,-1,-1,-1,-1,-1,-1,-1,-1,-1,-1],"loss_changes":[4.924075E2,1.4490634E2,5.748488E2,2.1712524E1,6.2782333E1,3.0564847E2,1.456712E2,7.97348E0,1.5210403E1,3.6232826E1,5.4460648E1,4.9487427E1,1.4839468E2,7.15775E1,5.124362E1,0E0,0E0,0E0,0E0,0E0,0E0,0E0,0E0,0E0,0E0,0E0,0E0,0E0,0E0,0E0,0E0],"parents":[2147483647,0,0,1,1,2,2,3,3,4,4,5,5,6,6,7,7,8,8,9,9,10,10,11,11,12,12,13,13,14,14],"right_children":[2,4,6,8,10,12,14,16,18,20,22,24,26,28,30,-1,-1,-1,-1,-1,-1,-1,-1,-1,-1,-1,-1,-1,-1,-1,-1],"split_conditions":[-1.0093106E0,-1.9561913E0,8.707977E-1,-2.3830717E0,-1.3665285E0,-5.9190935E-1,1.7242728E0,-1.4280679E0,1.7065408E0,-1.6469177E0,-4.2351305E-2,4.7119595E-2,1.5636408E-1,4.631228E-1,1.929303E-1,9.9854834E-2,5.7222956E-1,3.3573353E-1,-2.6994908E-1,-4.826189E-1,-1.49450665E-2,2.267874E-1,8.734729E-2,-1.2862287E-1,-2.3544471E-1,1.3991195E-2,-9.776107E-2,3.5758834E-2,1.8804249E-1,4.0438136E-1,1.644668E-1],"split_indices":[3,3,3,3,4,4,3,4,10,1,2,2,2,4,2,0,0,0,0,0,0,0,0,0,0,0,0,0,0,0,0],"split_type":[0,0,0,0,0,0,0,0,0,0,0,0,0,0,0,0,0,0,0,0,0,0,0,0,0,0,0,0,0,0,0],"sum_hessian":[4E3,5.94E2,3.406E3,9E1,5.04E2,2.678E3,7.28E2,3E1,6E1,4.6E1,4.58E2,7.05E2,1.973E3,5.78E2,1.5E2,2E0,2.8E1,5.9E1,1E0,7E0,3.9E1,2E2,2.58E2,3.38E2,3.67E2,1.177E3,7.96E2,4E2,1.78E2,8.6E1,6.4E1],"tree_param":{"num_deleted":"0","num_feature":"12","num_nodes":"31","size_leaf_vector":"1"}},{"base_weights":[2.6605972E-3,-3.274945E-1,2.6104805E-1,3.2614818E-1,-4.7327864E-1,1.9145986E-1,1.401026E0,9.041643E-1,1.3052392E-1,-7.1643656E-1,1.4384437E-1,7.368532E-1,7.935519E-3,1.1742496E0,2.4506083E0,1.4408182E-1,3.6198586E-1,-9.592452E-2,6.1856158E-2,-3.7094077E-1,-1.3155007E-1,9.6430965E-2,-5.294689E-2,3.58463E-1,1.1882247E-1,-1.1454211E-2,1.7157179E-1,1.3130803E-1,3.039833E-1,6.665303E-1,2.5311932E-1],"categories":[],"categories_nodes":[],"categories_segments":[],"categories_sizes":[],"default_left":[0,0,1,0,1,0,0,1,0,0,1,0,1,0,0,0,0,0,0,0,0,0,0,0,0,0,0,0,0,0,0],"id":5,"left_children":[1,3,5,7,9,11,13,15,17,19,21,23,25,27,29,-1,-1,-1,-1,-1,-1,-1,-1,-1,-1,-1,-1,-1,-1,-1,-1],"loss_changes":[3.4140256E2,1.675802E2,1.7782535E2,3.6178734E1,2.1573685E2,2.1189093E2,2.7827011E1,1.2177673E1,2.6433695E1,6.765149E1,5.638582E1,7.923566E1,8.789077E1,1.8329254E1,1.8777298E1,0E0,0E0,0E0,0E0,0E0,0E0,0E0,0E0,0E0,0E0,0E0,0E0,0E0,0E0,0E0,0E0],"parents":[2147483647,0,0,1,1,2,2,3,3,4,4,5,5,6,6,7,7,8,8,9,9,10,10,11,11,12,12,13,13,14,14],"right_children":[2,4,6,8,10,12,14,16,18,20,22,24,26,28,30,-1,-1,-1,-1,-1,-1,-1,-1,-1,-1,-1,-1,-1,-1,-1,-1],"split_conditions":[-8.0695026E-2,-8.521901E-1,1.5313342E0,-1.6327668E0,6.5913224E-1,-6.856298E-1,2.4148824E0,8.902724E-1,-1.3327945E0,-1.7341435E0,3.6629487E-2,-1.9040769E0,1.3975267E0,6.328737E-1,4.6779847E-1,1.4408182E-1,3.6198586E-1,-9.592452E-2,6.1856158E-2,-3.7094077E-1,-1.3155007E-1,9.6430965E-2,-5.294689E-2,3.58463E-1,1.1882247E-1,-1.1454211E-2,1.7157179E-1,1.3130803E-1,3.039833E-1,6.665303E-1,2.5311932E-1],"split_indices":[4,3,3,3,3,3,3,0,4,2,2,3,2,4,9,0,0,0,0,0,0,0,0,0,0,0,0,0,0,0,0],"split_type":[0,0,0,0,0,0,0,0,0,0,0,0,0,0,0,0,0,0,0,0,0,0,0,0,0,0,0,0,0,0,0],"sum_hessian":[4E3,1.756E3,2.244E3,3.2E2,1.436E3,2.116E3,1.28E2,8E1,2.4E2,1.03E3,4.06E2,5.32E2,1.584E3,1.07E2,2.1E1,6.8E1,1.2E1,5.4E1,1.86E2,4.9E1,9.81E2,2.22E2,1.84E2,6.2E1,4.7E2,1.472E3,1.12E2,4.4E1,6.3E1,1.1E1,1E1],"tree_param":{"num_deleted":"0","num_feature":"12","num_nodes":"31","size_leaf_vector":"1"}},{"base_weights":[2.629687E-3,-1.6332003E-1,3.735661E-1,4.7790837E-2,-4.585139E-1,1.3747065E0,3.1233683E-1,-9.235848E-1,1.5316829E-1,-7.1852255E-1,4.4623917E-1,-3.696376E-1,1.494909E0,1.753989E-1,8.848708E-1,-4.4858918E-2,-2.2128062E-1,1.292502E-1,2.181292E-3,-3.1502298E-1,-1.2970206E-1,2.974139E-2,2.143549E-1,3.127292E-1,-3.1792068E-1,1.14815675E-1,1.2323176E-3,1.4672361E-1,3.4853128E-1],"categories":[],"categories_nodes":[],"categories_segments":[],"categories_sizes":[],"default_left":[1,1,0,0,0,0,1,0,0,0,0,0,1,0,1,0,0,0,0,0,0,0,0,0,0,0,0,0,0],"id":6,"left_children":[1,3,5,7,9,11,13,15,17,19,21,-1,23,25,27,-1,-1,-1,-1,-1,-1,-1,-1,-1,-1,-1,-1,-1,-1],"loss_changes":[2.4634975E2,1.7233295E2,7.539758E1,1.6524991E2,2.7155652E2,3.026828E1,9.1339485E1,1.995105E1,1.0212677E2,5.271344E1,4.785878E1,0E0,1.7114975E1,6.3622036E1,2.791362E1,0E0,0E0,0E0,0E0,0E0,0E0,0E0,0E0,0E0,0E0,0E0,0E0,0E0,0E0],"parents":[2147483647,0,0,1,1,2,2,3,3,4,4,5,5,6,6,7,7,8,8,9,9,10,10,12,12,13,13,14,14],"right_children":[2,4,6,8,10,12,14,16,18,20,22,-1,24,26,28,-1,-1,-1,-1,-1,-1,-1,-1,-1,-1,-1,-1,-1,-1],"split_conditions":[4.631228E-1,1.5636408E-1,-1.5583732E0,-1.482626E0,1.313539E0,-1.8886592E0,8.707977E-1,-6.094744E-1,-7.2612077E-1,-1.662651E0,1.8556138E0,-3.696376E-1,1.6895065E0,-5.238729E-1,1.1352304E0,-4.4858918E-2,-2.2128062E-1,1.292502E-1,2.181292E-3,-3.1502298E-1,-1.2970206E-1,2.974139E-2,2.143549E-1,3.127292E-1,-3.1792068E-1,1.14815675E-1,1.2323176E-3,1.4672361E-1,3.4853128E-1],"split_indices":[4,2,3,2,2,1,3,3,3,4,2,0,1,3,5,0,0,0,0,0,0,0,0,0,0,0,0,0,0],"split_type":[0,0,0,0,0,0,0,0,0,0,0,0,0,0,0,0,0,0,0,0,0,0,0,0,0,0,0,0,0],"sum_hessian":[4E3,2.764E3,1.236E3,1.612E3,1.152E3,7E1,1.166E3,1.57E2,1.455E3,8.95E2,2.57E2,2E0,6.8E1,9.42E2,2.24E2,3.3E1,1.24E2,3.25E2,1.13E3,6.6E1,8.29E2,1.75E2,8.2E1,6.7E1,1E0,2.8E2,6.62E2,1.92E2,3.2E1],"tree_param":{"num_deleted":"0","num_feature":"12","num_nodes":"29","size_leaf_vector":"1"}},{"base_weights":[2.0790393E-3,2.5585344E-1,-1.8686986E-1,-5.9007305E-1,4.0130728E-1,-3.1492832E-1,6.306699E-1,-1.3423154E0,-4.7004408E-1,3.4088758E-1,1.3981291E0,-6.411474E-2,-5.2738297E-1,3.080184E-1,1.0545603E0,-2.9630145E-1,-8.916708E-2,-1.1116643E-1,2.389723E-1,1.8701264E-1,4.4908352E-2,2.3157182E-1,5.205649E-1,-3.4317445E-2,1.02856E-1,-2.4381058E-1,-9.070923E-2,-3.1317845E-2,1.0911731E-1,1.4640288E-1,3.1302693E-1],"categories":[],"categories_nodes":[],"categories_segments":[],"categories_sizes":[],"default_left":[0,0,1,0,1,1,0,0,1,0,1,1,0,1,1,0,0,0,0,0,0,0,0,0,0,0,0,0,0,0,0],"id":7,"left_children":[1,3,5,7,9,11,13,15,17,19,21,23,25,27,29,-1,-1,-1,-1,-1,-1,-1,-1,-1,-1,-1,-1,-1,-1,-1,-1],"loss_changes":[1.9189735E2,2.1039468E2,2.4036414E2,2.2032059E1,8.733536E1,1.056866E2,4.221029E1,3.5821E0,3.1800873E1,9.491272E1,2.1010818E1,5.6717384E1,5.429706E1,1.9732357E1,2.092192E1,0E0,0E0,0E0,0E0,0E0,0E0,0E0,0E0,0E0,0E0,0E0,0E0,0E0,0E0,0E0,0E0],"parents":[2147483647,0,0,1,1,2,2,3,3,4,4,5,5,6,6,7,7,8,8,9,9,10,10,11,11,12,12,13,13,14,14],"right_children":[2,4,6,8,10,12,14,16,18,20,22,24,26,28,30,-1,-1,-1,-1,-1,-1,-1,-1,-1,-1,-1,-1,-1,-1,-1,-1],"split_conditions":[-1.1526328E-1,-1.430797E0,1.3975267E0,-8.994775E-1,1.5313342E0,3.3598787E-1,1.8166678E0,1.241619E0,1.8533348E0,-9.930065E-1,1.1654992E0,9.9324816E-1,-1.287738E0,-6.9388396E-1,2.414246E-1,-2.9630145E-1,-8.916708E-2,-1.1116643E-1,2.389723E-1,1.8701264E-1,4.4908352E-2,2.3157182E-1,5.205649E-1,-3.4317445E-2,1.02856E-1,-2.4381058E-1,-9.070923E-2,-3.1317845E-2,1.0911731E-1,1.4640288E-1,3.1302693E-1],"split_indices":[2,2,2,4,3,2,2,5,1,3,0,4,4,7,4,0,0,0,0,0,0,0,0,0,0,0,0,0,0,0,0],"split_type":[0,0,0,0,0,0,0,0,0,0,0,0,0,0,0,0,0,0,0,0,0,0,0,0,0,0,0,0,0,0,0],"sum_hessian":[4E3,1.707E3,2.293E3,2.5E2,1.457E3,1.983E3,3.1E2,3.3E1,2.17E2,1.375E3,8.2E1,9.1E2,1.073E3,1.77E2,1.33E2,2.8E1,5E0,2.07E2,1E1,2.24E2,1.151E3,7E1,1.2E1,7.68E2,1.42E2,1.02E2,9.71E2,6E1,1.17E2,8.3E1,5E1],"tree_param":{"num_deleted":"0","num_feature":"12","num_nodes":"31","size_leaf_vector":"1"}},{"base_weights":[1.9125788E-3,-9.420789E-2,4.1127464E-1,3.0137554E-1,-2.8126293E-1,3.4623888E-1,1.8355107E0,1.1888952E0,2.31238E-1,-3.9870903E-1,1.4405322E-1,4.4990104E-2,5.2127075E-1,9.49518E-1,2.521087E0,3.8724852E-1,1.9146638E-1,3.595292E-2,1.9577083E-1,-5.039452E-1,-7.622628E-2,3.5101082E-2,-3.985618E-1,2.0708382E-2,-3.7564105E-1,9.2894875E-2,3.9546725E-1,3.1795375E-2,2.588805E-1,5.7121426E-1,1.2692486E-1],"categories":[],"categories_nodes":[],"categories_segments":[],"categories_sizes":[],"default_left":[1,0,0,0,1,0,1,0,1,0,1,1,1,1,0,0,0,0,0,0,0,0,0,0,0,0,0,0,0,0,0],"id":8,"left_children":[1,3,5,7,9,11,13,15,17,19,21,23,25,27,29,-1,-1,-1,-1,-1,-1,-1,-1,-1,-1,-1,-1,-1,-1,-1,-1],"loss_changes":[1.574704E2,2.399054E2,6.985306E1,6.452571E1,1.1000116E2,3.8415367E1,1.7650887E1,1.1298798E1,3.6997993E1,6.335196E1,3.2408443E1,3.0485638E1,3.7205925E1,4.1565456E0,9.562309E0,0E0,0E0,0E0,0E0,0E0,0E0,0E0,0E0,0E0,0E0,0E0,0E0,0E0,0E0,0E0,0E0],"parents":[2147483647,0,0,1,1,2,2,3,3,4,4,5,5,6,6,7,7,8,8,9,9,10,10,11,11,12,12,13,13,14,14],"right_children":[2,4,6,8,10,12,14,16,18,20,22,24,26,28,30,-1,-1,-1,-1,-1,-1,-1,-1,-1,-1,-1,-1,-1,-1,-1,-1],"split_conditions":[8.318012E-1,-5.969137E-1,2.4148824E0,-2.0514596E0,7.5025415E-1,-2.1649535E-1,2.3878099E-1,-2.586049E0,1.4489654E0,-2.4940646E0,2.452976E0,1.8537657E0,1.7481712E0,-6.267668E-1,8.1704193E-1,3.8724852E-1,1.9146638E-1,3.595292E-2,1.9577083E-1,-5.039452E-1,-7.622628E-2,3.5101082E-2,-3.985618E-1,2.0708382E-2,-3.7564105E-1,9.2894875E-2,3.9546725E-1,3.1795375E-2,2.588805E-1,5.7121426E-1,1.2692486E-1],"split_indices":[3,3,3,3,4,4,11,3,4,1,0,0,0,4,4,0,0,0,0,0,0,0,0,0,0,0,0,0,0,0,0],"split_type":[0,0,0,0,0,0,0,0,0,0,0,0,0,0,0,0,0,0,0,0,0,0,0,0,0,0,0,0,0,0,0],"sum_hessian":[4E3,3.24E3,7.6E2,1.04E3,2.2E3,7.28E2,3.2E1,7.5E1,9.65E2,1.724E3,4.76E2,2.68E2,4.6E2,1.5E1,1.7E1,1.6E1,5.9E1,9.04E2,6.1E1,1.3E1,1.711E3,4.7E2,6E0,2.61E2,7E0,4.44E2,1.6E1,5E0,1E1,1.4E1,3E0],"tree_param":{"num_deleted":"0","num_feature":"12","num_nodes":"31","size_leaf_vector":"1"}},{"base_weights":[1.7772607E-3,-4.7692654E-1,7.374056E-2,-4.2572182E-1,-1.4798954E0,2.6157308E-1,-1.0201474E-1,-3.4246302E-1,-1.0528713E0,-2.5352197E0,1.0795714E0,-3.432924E-1,3.8313657E-1,-2.1022032E-1,6.95658E-1,-2.6858223E-3,-1.0263053E-1,-4.4336343E-1,1.3768384E-1,-5.8475095E-1,-1.8805552E-1,2.82699E-2,5.192316E-1,2.9799184E-1,-7.63525E-2,8.014759E-2,-4.76747E-1,-4.7174267E-2,2.3466754E-1,-2.639447E-1,1.4998554E-1],"categories":[],"categories_nodes":[],"categories_segments":[],"categories_sizes":[],"default_left":[0,1,0,1,0,0,1,0,0,0,1,0,1,1,0,0,0,0,0,0,0,0,0,0,0,0,0,0,0,0,0],"id":9,"left_children":[1,3,5,7,9,11,13,15,17,19,21,23,25,27,29,-1,-1,-1,-1,-1,-1,-1,-1,-1,-1,-1,-1,-1,-1,-1,-1],"loss_changes":[1.3786603E2,2.6229546E1,1.14877396E2,2.5695084E1,7.026364E1,1.2380824E2,1.553364E2,2.4817009E1,1.1907863E2,8.405289E0,1.1016192E1,2.0456963E1,6.918498E1,5.6492363E1,2.450512E1,0E0,0E0,0E0,0E0,0E0,0E0,0E0,0E0,0E0,0E0,0E0,0E0,0E0,0E0,0E0,0E0],"parents":[2147483647,0,0,1,1,2,2,3,3,4,4,5,5,6,6,7,7,8,8,9,9,10,10,11,11,12,12,13,13,14,14],"right_children":[2,4,6,8,10,12,14,16,18,20,22,24,26,28,30,-1,-1,-1,-1,-1,-1,-1,-1,-1,-1,-1,-1,-1,-1,-1,-1],"split_conditions":[-1.0851983E0,1.7364388E0,3.1507503E-2,1.2977955E0,-7.933406E-2,-1.3336796E0,1.5183815E0,-3.6352116E-1,8.344439E-2,-4.8462585E-1,1.5790963E0,-1.7658492E0,2.559825E0,2.1478705E0,-2.2338195E0,-2.6858223E-3,-1.0263053E-1,-4.4336343E-1,1.3768384E-1,-5.8475095E-1,-1.8805552E-1,2.82699E-2,5.192316E-1,2.9799184E-1,-7.63525E-2,8.014759E-2,-4.76747E-1,-4.7174267E-2,2.3466754E-1,-2.639447E-1,1.4998554E-1],"split_indices":[4,1,2,0,0,2,2,2,1,0,0,1,0,3,9,0,0,0,0,0,0,0,0,0,0,0,0,0,0,0,0],"split_type":[0,0,0,0,0,0,0,0,0,0,0,0,0,0,0,0,0,0,0,0,0,0,0,0,0,0,0,0,0,0,0],"sum_hessian":[4E3,5.22E2,3.478E3,4.98E2,2.4E1,1.681E3,1.797E3,4.41E2,5.7E1,1.7E1,7E0,2.81E2,1.4E3,1.583E3,2.14E2,1.51E2,2.9E2,3.4E1,2.3E1,1.3E1,4E0,5E0,2E0,5E0,2.76E2,1.392E3,8E0,1.555E3,2.8E1,5E0,2.09E2],"tree_param":{"num_deleted":"0","num_feature":"12","num_nodes":"31","size_leaf_vector":"1"}},{"base_weights":[1.2374207E-3,-8.75722E-2,2.85371E-1,2.3160894E-1,-2.7144787E-1,2.3675029E-1,1.2175757E0,8.84354E-1,1.7343196E-1,-3.846449E-1,7.439465E-2,1.9250523E-1,1.1434046E0,-1.7346863E-1,1.3510092E0,3.3972237E-1,1.4025901E-1,2.3545668E-2,1.3105226E-1,-1.7470229E-1,-6.566624E-2,6.0524154E-2,-2.6991611E-2,7.860356E-2,-2.028105E-2,2.4441901E-1,-2.0829041E-1,-1.06507055E-1,4.868417E-2,3.0483356E-1,4.8548363E-2],"categories":[],"categories_nodes":[],"categories_segments":[],"categories_sizes":[],"default_left":[1,0,0,0,1,1,1,0,1,0,1,1,1,0,0,0,0,0,0,0,0,0,0,0,0,0,0,0,0,0,0],"id":10,"left_children":[1,3,5,7,9,11,13,15,17,19,21,23,25,27,29,-1,-1,-1,-1,-1,-1,-1,-1,-1,-1,-1,-1,-1,-1,-1,-1],"loss_changes":[1.00985405E2,1.7900761E2,4.2905952E1,4.218845E1,7.5780655E1,3.6164185E1,8.958122E0,1.2372978E1,2.7433489E1,3.985176E1,2.2879564E1,5.1075615E1,8.493702E0,8.780857E-1,7.881981E0,0E0,0E0,0E0,0E0,0E0,0E0,0E0,0E0,0E0,0E0,0E0,0E0,0E0,0E0,0E0,0E0],"parents":[2147483647,0,0,1,1,2,2,3,3,4,4,5,5,6,6,7,7,8,8,9,9,10,10,11,11,12,12,13,13,14,14],"right_children":[2,4,6,8,10,12,14,16,18,20,22,24,26,28,30,-1,-1,-1,-1,-1,-1,-1,-1,-1,-1,-1,-1,-1,-1,-1,-1],"split_conditions":[6.5913224E-1,-5.399152E-1,2.2667584E0,-1.9561913E0,6.97212E-1,1.7245616E0,-2.1460164E0,-8.6388016E-1,1.2469832E0,-1.4564856E0,-2.002251E-1,1.4533198E-1,2.3526013E0,-1.1472656E0,9.4764686E-1,3.3972237E-1,1.4025901E-1,2.3545668E-2,1.3105226E-1,-1.7470229E-1,-6.566624E-2,6.0524154E-2,-2.6991611E-2,7.860356E-2,-2.028105E-2,2.4441901E-1,-2.0829041E-1,-1.06507055E-1,4.868417E-2,3.0483356E-1,4.8548363E-2],"split_indices":[3,3,3,3,4,2,8,0,4,4,2,2,7,0,10,0,0,0,0,0,0,0,0,0,0,0,0,0,0,0,0],"split_type":[0,0,0,0,0,0,0,0,0,0,0,0,0,0,0,0,0,0,0,0,0,0,0,0,0,0,0,0,0,0,0],"sum_hessian":[4E3,3.048E3,9.52E2,1.114E3,1.934E3,9.06E2,4.6E1,9E1,1.024E3,1.457E3,4.77E2,8.65E2,4.1E1,4E0,4.2E1,1.5E1,7.5E1,9.19E2,1.05E2,1.49E2,1.308E3,2.28E2,2.49E2,5.14E2,3.51E2,4E1,1E0,2E0,2E0,3.6E1,6E0],"tree_param":{"num_deleted":"0","num_feature":"12","num_nodes":"31","size_leaf_vector":"1"}},{"base_weights":[1.1943234E-3,1.7874506E-1,-1.03783466E-1,-3.446512E-1,3.1689078E-1,-1.8623218E-1,3.5284504E-1,-6.180538E-1,-1.7197952E-1,3.340228E-1,-2.5943246E0,-1.7339591E-2,-3.7723234E-1,1.8973663E-1,7.1146166E-1,-1.4443211E-1,2.96067E-1,3.0266055E-1,-4.502661E-2,-3.2232415E-3,8.591347E-2,-7.698649E-1,7.242338E-2,-4.953948E-1,9.156409E-4,-8.916517E-2,2.0421112E-2,5.3690363E-2,-1.1596315E-1,1.0944378E-1,3.6493602E-1],"categories":[],"categories_nodes":[],"categories_segments":[],"categories_sizes":[],"default_left":[0,0,1,0,1,1,0,1,0,0,0,0,0,1,1,0,0,0,0,0,0,0,0,0,0,0,0,0,0,0,0],"id":11,"left_children":[1,3,5,7,9,11,13,15,17,19,21,23,25,27,29,-1,-1,-1,-1,-1,-1,-1,-1,-1,-1,-1,-1,-1,-1,-1,-1],"loss_changes":[7.4592735E1,1.0762666E2,9.475151E1,1.4575668E1,5.956949E1,6.873635E1,2.2384964E1,2.7283817E1,1.7539812E1,3.918141E1,2.7366245E1,6.1037193E1,3.2924988E1,1.6268723E1,2.0942074E1,0E0,0E0,0E0,0E0,0E0,0E0,0E0,0E0,0E0,0E0,0E0,0E0,0E0,0E0,0E0,0E0],"parents":[2147483647,0,0,1,1,2,2,3,3,4,4,5,5,6,6,7,7,8,8,9,9,10,10,11,11,12,12,13,13,14,14],"right_children":[2,4,6,8,10,12,14,16,18,20,22,24,26,28,30,-1,-1,-1,-1,-1,-1,-1,-1,-1,-1,-1,-1,-1,-1,-1,-1],"split_conditions":[-2.6647592E-1,-1.3336796E0,1.2951168E0,-1.7587183E0,2.559825E0,3.3598787E-1,1.8556138E0,1.8533348E0,-1.7658492E0,-7.860151E-1,-1.1222519E0,-2.4940646E0,1.4489654E0,1.2708366E0,1.2106612E0,-1.4443211E-1,2.96067E-1,3.0266055E-1,-4.502661E-2,-3.2232415E-3,8.591347E-2,-7.698649E-1,7.242338E-2,-4.953948E-1,9.156409E-4,-8.916517E-2,2.0421112E-2,5.3690363E-2,-1.1596315E-1,1.0944378E-1,3.6493602E-1],"split_indices":[2,2,2,2,0,2,2,1,1,4,1,1,4,5,0,0,0,0,0,0,0,0,0,0,0,0,0,0,0,0,0],"split_type":[0,0,0,0,0,0,0,0,0,0,0,0,0,0,0,0,0,0,0,0,0,0,0,0,0,0,0,0,0,0,0],"sum_hessian":[4E3,1.486E3,2.514E3,3.1E2,1.176E3,2.13E3,3.84E2,1.19E2,1.91E2,1.17E3,6E0,1.131E3,9.99E2,2.65E2,1.19E2,1.14E2,5E0,5E0,1.86E2,2.51E2,9.19E2,4E0,2E0,9E0,1.122E3,8.74E2,1.25E2,2.41E2,2.4E1,1.05E2,1.4E1],"tree_param":{"num_deleted":"0","num_feature":"12","num_nodes":"31","size_leaf_vector":"1"}},{"base_weights":[8.6633954E-4,3.40426E-1,-4.995568E-2,3.647652E-1,-1.0847335E0,-1.5418503E-1,2.2669277E-1,4.3338457E-1,-1.9179308E-1,-5.18022E-1,9.963975E-2,-2.5038484E-1,5.4039825E-2,1.4637567E-1,6.523083E-1,1.8093687E-1,4.6596076E-2,-2.8459916E-1,2.8821322E-1,8.750391E-2,-7.6815985E-2,-3.1139067E-1,-4.7301885E-2,3.6565505E-2,-3.3887047E-2,1.6024215E-2,1.00345366E-1,1.0723483E-1,2.9612467E-1],"categories":[],"categories_nodes":[],"categories_segments":[],"categories_sizes":[],"default_left":[0,1,1,1,0,1,0,0,0,0,1,0,1,1,0,0,0,0,0,0,0,0,0,0,0,0,0,0,0],"id":12,"left_children":[1,3,5,7,9,11,13,15,17,-1,19,21,23,25,27,-1,-1,-1,-1,-1,-1,-1,-1,-1,-1,-1,-1,-1,-1],"loss_changes":[6.906269E1,1.846772E1,1.0040919E2,1.9674942E1,1.6304424E1,5.0672424E1,3.2482067E1,4.2953087E1,1.16642334E2,0E0,1.148677E0,3.0995293E1,2.3055649E1,1.8865347E1,1.3731674E1,0E0,0E0,0E0,0E0,0E0,0E0,0E0,0E0,0E0,0E0,0E0,0E0,0E0,0E0],"parents":[2147483647,0,0,1,1,2,2,3,3,4,4,5,5,6,6,7,7,8,8,10,10,11,11,12,12,13,13,14,14],"right_children":[2,4,6,8,10,12,14,16,18,-1,20,22,24,26,28,-1,-1,-1,-1,-1,-1,-1,-1,-1,-1,-1,-1,-1,-1],"split_conditions":[-1.0798875E0,2.0948908E0,6.5913224E-1,1.1896857E0,-1.5210142E0,4.631228E-1,1.7242728E0,-5.838987E-1,-2.2192937E-1,-5.18022E-1,1.0023136E0,-2.1691403E0,2.4064617E-1,8.846233E-1,2.6140227E0,1.8093687E-1,4.6596076E-2,-2.8459916E-1,2.8821322E-1,8.750391E-2,-7.6815985E-2,-3.1139067E-1,-4.7301885E-2,3.6565505E-2,-3.3887047E-2,1.6024215E-2,1.00345366E-1,1.0723483E-1,2.9612467E-1],"split_indices":[3,0,3,1,1,4,3,0,0,0,5,0,2,4,3,0,0,0,0,0,0,0,0,0,0,0,0,0,0],"split_type":[0,0,0,0,0,0,0,0,0,0,0,0,0,0,0,0,0,0,0,0,0,0,0,0,0,0,0,0,0],"sum_hessian":[4E3,5.2E2,3.48E3,5.12E2,8E0,2.528E3,9.52E2,4.56E2,5.6E1,3E0,5E0,1.729E3,7.99E2,8.02E2,1.5E2,1.35E2,3.21E2,3.2E1,2.4E1,3E0,2E0,1.7E1,1.712E3,5.07E2,2.92E2,6.77E2,1.25E2,1.33E2,1.7E1],"tree_param":{"num_deleted":"0","num_feature":"12","num_nodes":"29","size_leaf_vector":"1"}},{"base_weights":[6.649624E-4,-3.7527093E-1,3.9304648E-2,-1.2931191E0,-3.385344E-1,2.781992E-1,-1.5079974E-2,5.512369E-1,-2.7452905E0,3.7941968E-1,-3.5632312E-1,2.39869E-1,1.0642673E0,-1.303336E-1,2.0261103E-1,1.7561737E-1,-3.545172E-2,-1.3384156E-1,-5.8925456E-1,-1.631383E-2,-9.557219E-2,2.0373304E-1,4.1343194E-2,1.3522856E-1,5.894572E-1,-1.671923E-1,-2.200141E-2,2.9122481E-2,1.1289368E-1],"categories":[],"categories_nodes":[],"categories_segments":[],"categories_sizes":[],"default_left":[0,0,0,0,0,1,1,0,0,0,0,0,0,0,0,0,0,0,0,0,0,0,0,0,0,0,0,0,0],"id":13,"left_children":[1,3,5,7,9,11,13,15,17,-1,19,21,23,25,27,-1,-1,-1,-1,-1,-1,-1,-1,-1,-1,-1,-1,-1,-1],"loss_changes":[5.8133453E1,1.2139248E1,4.715285E1,3.9009804E1,1.4992844E1,2.0022293E1,7.421658E1,1.8224092E0,1.3663788E0,0E0,1.191571E1,1.639133E1,2.0663433E1,2.7647362E1,2.1038189E1,0E0,0E0,0E0,0E0,0E0,0E0,0E0,0E0,0E0,0E0,0E0,0E0,0E0,0E0],"parents":[2147483647,0,0,1,1,2,2,3,3,4,4,5,5,6,6,7,7,8,8,10,10,11,11,12,12,13,13,14,14],"right_children":[2,4,6,8,10,12,14,16,18,-1,20,22,24,26,28,-1,-1,-1,-1,-1,-1,-1,-1,-1,-1,-1,-1,-1,-1],"split_conditions":[-1.287738E0,-1.9313828E0,-8.521901E-1,1.5475331E-1,-1.8642348E0,1.692677E0,5.3556406E-1,-3.31275E-1,3.9276472E-1,3.7941968E-1,-5.238729E-1,-2.3830717E0,1.3868959E0,-1.8748444E0,1.7242728E0,1.7561737E-1,-3.545172E-2,-1.3384156E-1,-5.8925456E-1,-1.631383E-2,-9.557219E-2,2.0373304E-1,4.1343194E-2,1.3522856E-1,5.894572E-1,-1.671923E-1,-2.200141E-2,2.9122481E-2,1.1289368E-1],"split_indices":[4,0,3,1,0,4,3,1,1,0,3,3,6,9,3,0,0,0,0,0,0,0,0,0,0,0,0,0,0],"split_type":[0,0,0,0,0,0,0,0,0,0,0,0,0,0,0,0,0,0,0,0,0,0,0,0,0,0,0,0,0],"sum_hessian":[4E3,3.72E2,3.628E3,1.3E1,3.59E2,6.72E2,2.956E3,6E0,7E0,2E0,3.57E2,6.42E2,3E1,1.933E3,1.023E3,4E0,2E0,1E0,6E0,1.1E2,2.47E2,2.5E1,6.17E2,2.6E1,4E0,5.3E1,1.88E3,8.85E2,1.38E2],"tree_param":{"num_deleted":"0","num_feature":"12","num_nodes":"29","size_leaf_vector":"1"}},{"base_weights":[6.837261E-4,-3.759582E-2,3.1538588E-1,-6.1007943E-2,4.7831762E-1,3.3582085E-1,-5.4647624E-1,3.1169532E-2,-2.7890444E-1,7.4862915E-1,1.4796835E-1,5.815539E-1,3.110572E-1,-1.1050711E-1,1.2103978E-2,-8.413719E-2,-1.5734863E-2,1.2074115E-1,5.11234E-1,5.1825155E-2,-4.91595E-1,-1.1347985E-1,8.056911E-2],"categories":[],"categories_nodes":[],"categories_segments":[],"categories_sizes":[],"default_left":[1,1,1,1,0,0,0,0,0,0,1,0,0,0,0,0,0,0,0,0,0,0,0],"id":14,"left_children":[1,3,5,7,9,11,-1,13,15,17,19,-1,21,-1,-1,-1,-1,-1,-1,-1,-1,-1,-1],"loss_changes":[4.8210526E1,4.3125732E1,2.7947586E1,6.857939E1,1.3730293E1,2.660997E1,0E0,4.1150124E1,2.8781647E1,2.0723E1,2.1203487E1,0E0,3.481972E1,0E0,0E0,0E0,0E0,0E0,0E0,0E0,0E0,0E0,0E0],"parents":[2147483647,0,0,1,1,2,2,3,3,4,4,5,5,7,7,8,8,9,9,10,10,12,12],"right_children":[2,4,6,8,10,12,-1,14,16,18,20,-1,22,-1,-1,-1,-1,-1,-1,-1,-1,-1,-1],"split_conditions":[1.1979924E0,1.6706289E0,2.7231166E0,4.006649E-1,1.8192467E-1,-2.7830408E0,-5.4647624E-1,-1.7341435E0,9.879001E-1,1.4469974E0,2.4619818E0,5.815539E-1,-1.355256E0,-1.1050711E-1,1.2103978E-2,-8.413719E-2,-1.5734863E-2,1.2074115E-1,5.11234E-1,5.1825155E-2,-4.91595E-1,-1.1347985E-1,8.056911E-2],"split_indices":[4,2,1,2,10,1,0,2,2,0,1,0,1,0,0,0,0,0,0,0,0,0,0],"split_type":[0,0,0,0,0,0,0,0,0,0,0,0,0,0,0,0,0,0,0,0,0,0,0],"sum_hessian":[4E3,3.567E3,4.33E2,3.413E3,1.54E2,4.31E2,2E0,2.399E3,1.014E3,8.4E1,7E1,3E0,4.28E2,1.14E2,2.285E3,5.93E2,4.21E2,7.9E1,5E0,6.8E1,2E0,4E1,3.88E2],"tree_param":{"num_deleted":"0","num_feature":"12","num_nodes":"23","size_leaf_vector":"1"}},{"base_weights":[5.4599997E-4,1.3987605E-1,-7.069775E-2,-2.535917E-1,2.5695324E-1,-1.2625986E-1,2.5622E-1,-7.466542E-2,-4.6878883E-1,2.8996918E-1,-7.3234266E-1,-2.7551293E-1,-4.066261E-2,2.8917313E-1,-1.1526184E0,-3.6348887E-2,4.2595744E-1,-2.1492492E-1,-7.541288E-2,4.8682332E-2,1.4523129E-1,-4.8251715E-1,1.7904788E-1,-6.86375E-3,-7.104146E-2,-1.8384133E-1,-3.2389585E-3,-2.0047975E-1,6.326349E-2,-2.6354482E-2,-2.850928E-1],"categories":[],"categories_nodes":[],"categories_segments":[],"categories_sizes":[],"default_left":[0,0,1,1,1,0,1,1,0,1,0,0,0,0,0,0,0,0,0,0,0,0,0,0,0,0,0,0,0,0,0],"id":15,"left_children":[1,3,5,7,9,11,13,15,17,19,21,23,25,27,29,-1,-1,-1,-1,-1,-1,-1,-1,-1,-1,-1,-1,-1,-1,-1,-1],"loss_changes":[3.9725395E1,6.2438652E1,4.813126E1,1.1939873E1,3.4312035E1,2.891288E1,1.820717E1,4.0751728E1,7.4301624E0,2.0354424E1,9.5140785E1,1.5845802E1,3.0939432E1,1.3534262E1,2.318963E0,0E0,0E0,0E0,0E0,0E0,0E0,0E0,0E0,0E0,0E0,0E0,0E0,0E0,0E0,0E0,0E0],"parents":[2147483647,0,0,1,1,2,2,3,3,4,4,5,5,6,6,7,7,8,8,9,9,10,10,11,11,12,12,13,13,14,14],"right_children":[2,4,6,8,10,12,14,16,18,20,22,24,26,28,30,-1,-1,-1,-1,-1,-1,-1,-1,-1,-1,-1,-1,-1,-1,-1,-1],"split_conditions":[-3.6352116E-1,-1.3336796E0,1.2951168E0,8.480735E-2,1.6895065E0,-2.7130237E-1,1.8668122E0,1.8533348E0,-1.1171782E0,1.2260234E0,-3.9429724E-1,-6.442957E-1,-1.8886592E0,-2.2338195E0,-4.5321897E-1,-3.6348887E-2,4.2595744E-1,-2.1492492E-1,-7.541288E-2,4.8682332E-2,1.4523129E-1,-4.8251715E-1,1.7904788E-1,-6.86375E-3,-7.104146E-2,-1.8384133E-1,-3.2389585E-3,-2.0047975E-1,6.326349E-2,-2.6354482E-2,-2.850928E-1],"split_indices":[2,2,2,6,1,4,8,1,9,4,0,3,1,9,6,0,0,0,0,0,0,0,0,0,0,0,0,0,0,0,0],"split_type":[0,0,0,0,0,0,0,0,0,0,0,0,0,0,0,0,0,0,0,0,0,0,0,0,0,0,0,0,0,0,0],"sum_hessian":[4E3,1.353E3,2.647E3,3.1E2,1.043E3,2.263E3,3.84E2,1.7E2,1.4E2,1.01E3,3.3E1,8.24E2,1.439E3,3.76E2,8E0,1.63E2,7E0,1.7E1,1.23E2,9.14E2,9.6E1,1.6E1,1.7E1,2.05E2,6.19E2,3.8E1,1.401E3,7E0,3.69E2,2E0,6E0],"tree_param":{"num_deleted":"0","num_feature":"12","num_nodes":"31","size_leaf_vector":"1"}},{"base_weights":[2.5585675E-4,-2.896794E-1,2.743474E-2,4.4424906E-1,-3.3649927E-1,1.9380735E-1,-2.1979744E-2,1.4128367E0,-3.7375115E-2,-1.1706988E0,-2.6864165E-1,2.0399435E-1,-3.9623627E-1,-1.2858012E-1,1.6247872E-1,4.555737E-2,4.489355E-1,-7.819278E-2,4.835823E-2,2.0167768E-1,-4.646533E-1,-2.6361272E-1,-4.48275E-2,2.0585458E-1,3.4178745E-2,-2.3375405E-2,-2.836248E-1,2.902889E-2,2.3818755E-1],"categories":[],"categories_nodes":[],"categories_segments":[],"categories_sizes":[],"default_left":[0,0,0,0,0,1,1,0,0,0,0,0,0,1,0,0,0,0,0,0,0,0,0,0,0,0,0,0,0],"id":16,"left_children":[1,3,5,7,9,11,13,15,17,19,21,23,-1,25,27,-1,-1,-1,-1,-1,-1,-1,-1,-1,-1,-1,-1,-1,-1],"loss_changes":[3.1536295E1,1.1935806E1,3.0085693E1,9.849205E0,1.7969494E1,1.8971394E1,5.551084E1,6.389101E0,1.5751824E0,6.2619858E1,1.3715668E1,2.2634003E1,0E0,2.683321E1,1.8260859E1,0E0,0E0,0E0,0E0,0E0,0E0,0E0,0E0,0E0,0E0,0E0,0E0,0E0,0E0],"parents":[2147483647,0,0,1,1,2,2,3,3,4,4,5,5,6,6,7,7,8,8,9,9,10,10,11,11,13,13,14,14],"right_children":[2,4,6,8,10,12,14,16,18,20,22,24,-1,26,28,-1,-1,-1,-1,-1,-1,-1,-1,-1,-1,-1,-1,-1,-1],"split_conditions":[-1.3327945E0,-1.5987184E0,-6.988749E-1,-7.4513954E-1,-1.6469177E0,2.5582795E0,5.3556406E-1,-1.6241122E0,-1.8744558E0,2.6231777E-2,-1.9313828E0,-1.6742147E0,-3.9623627E-1,2.452976E0,2.6140227E0,4.555737E-2,4.489355E-1,-7.819278E-2,4.835823E-2,2.0167768E-1,-4.646533E-1,-2.6361272E-1,-4.48275E-2,2.0585458E-1,3.4178745E-2,-2.3375405E-2,-2.836248E-1,2.902889E-2,2.3818755E-1],"split_indices":[4,8,3,0,1,8,3,0,4,0,0,1,0,0,3,0,0,0,0,0,0,0,0,0,0,0,0,0,0],"split_type":[0,0,0,0,0,0,0,0,0,0,0,0,0,0,0,0,0,0,0,0,0,0,0,0,0,0,0,0,0],"sum_hessian":[4E3,3.42E2,3.658E3,2E1,3.22E2,8.37E2,2.821E3,6E0,1.4E1,2.3E1,2.99E2,8.34E2,3E0,1.788E3,1.033E3,3E0,3E0,6E0,8E0,8E0,1.5E1,1.1E1,2.88E2,3.1E1,8.03E2,1.773E3,1.5E1,1.017E3,1.6E1],"tree_param":{"num_deleted":"0","num_feature":"12","num_nodes":"29","size_leaf_vector":"1"}},{"base_weights":[1.2901436E-4,8.519113E-2,-8.006067E-2,9.5383495E-2,-2.1145017E0,-1.4537282E-1,2.0446722E-1,-2.8652677E-1,1.4457065E-1,-2.8629072E0,3.3661118E-1,-1.7359398E-1,5.456825E-1,2.3146588E-1,-9.4919497E-1,-6.3001536E-2,2.013698E-1,3.0155493E-2,-4.01414E-1,-6.2533045E-1,-1.2804358E-1,-1.0306597E-2,1.11289956E-1,-2.5139576E-2,-1.1169567E-1,-2.2645567E-1,5.1939565E-1,7.448403E-2,3.1344623E-3,-1.9723838E-2,-2.3562562E-1],"categories":[],"categories_nodes":[],"categories_segments":[],"categories_sizes":[],"default_left":[1,1,0,0,0,1,1,1,1,0,0,1,1,0,0,0,0,0,0,0,0,0,0,0,0,0,0,0,0,0,0],"id":17,"left_children":[1,3,5,7,9,11,13,15,17,19,21,23,25,27,29,-1,-1,-1,-1,-1,-1,-1,-1,-1,-1,-1,-1,-1,-1,-1,-1],"loss_changes":[2.729806E1,4.3741497E1,3.831097E1,3.637177E1,1.7473518E1,3.2780716E1,1.2211426E1,8.458031E0,2.319276E1,2.1018295E0,2.8466275E-1,2.9627708E1,2.3011209E2,1.1461378E1,1.6363401E0,0E0,0E0,0E0,0E0,0E0,0E0,0E0,0E0,0E0,0E0,0E0,0E0,0E0,0E0,0E0,0E0],"parents":[2147483647,0,0,1,1,2,2,3,3,4,4,5,5,6,6,7,7,8,8,9,9,10,10,11,11,12,12,13,13,14,14],"right_children":[2,4,6,8,10,12,14,16,18,20,22,24,26,28,30,-1,-1,-1,-1,-1,-1,-1,-1,-1,-1,-1,-1,-1,-1,-1,-1],"split_conditions":[-1.1526328E-1,2.559825E0,1.2951168E0,-1.482626E0,-8.309975E-1,1.7481712E0,1.8668122E0,2.089541E0,2.7231166E0,1.692677E0,-4.346953E-1,1.1896857E0,4.4955328E-1,3.6530003E-1,-4.5321897E-1,-6.3001536E-2,2.013698E-1,3.0155493E-2,-4.01414E-1,-6.2533045E-1,-1.2804358E-1,-1.0306597E-2,1.11289956E-1,-2.5139576E-2,-1.1169567E-1,-2.2645567E-1,5.1939565E-1,7.448403E-2,3.1344623E-3,-1.9723838E-2,-2.3562562E-1],"split_indices":[2,0,2,2,1,0,8,1,1,4,1,1,1,11,6,0,0,0,0,0,0,0,0,0,0,0,0,0,0,0,0],"split_type":[0,0,0,0,0,0,0,0,0,0,0,0,0,0,0,0,0,0,0,0,0,0,0,0,0,0,0,0,0,0,0],"sum_hessian":[4E3,1.941E3,2.059E3,1.933E3,8E0,1.675E3,3.84E2,2.2E2,1.713E3,6E0,2E0,1.61E3,6.5E1,3.76E2,8E0,2.16E2,4E0,1.709E3,4E0,5E0,1E0,1E0,1E0,1.433E3,1.77E2,3.6E1,2.9E1,2.27E2,1.49E2,2E0,6E0],"tree_param":{"num_deleted":"0","num_feature":"12","num_nodes":"31","size_leaf_vector":"1"}},{"base_weights":[-1.2346044E-4,-3.6872625E-2,1.7292807E-1,-5.5350635E-2,3.968809E-1,4.9849436E-1,1.593878E-1,8.973502E-2,-1.12365246E-1,5.8161664E-1,7.1197845E-2,-6.900757E-1,1.6951713E-1,-1.9774986E-2,3.036355E-2,-3.9314006E-2,5.7867584E-3,1.7199807E-1,2.611495E-2,-5.5939782E-2,1.0610145E-1,-2.9992184E-1,3.7236094E-2],"categories":[],"categories_nodes":[],"categories_segments":[],"categories_sizes":[],"default_left":[1,1,0,0,1,0,0,0,1,0,0,0,0,0,0,0,0,0,0,0,0,0,0],"id":18,"left_children":[1,3,5,7,9,-1,11,13,15,17,19,-1,21,-1,-1,-1,-1,-1,-1,-1,-1,-1,-1],"loss_changes":[2.5450731E1,2.6479156E1,2.1619198E1,2.6207514E1,8.080906E0,0E0,2.6106936E1,1.0483233E1,2.7061867E1,1.0685711E1,8.206891E0,0E0,1.966501E1,0E0,0E0,0E0,0E0,0E0,0E0,0E0,0E0,0E0,0E0],"parents":[2147483647,0,0,1,1,2,2,3,3,4,4,6,6,7,7,8,8,9,9,10,10,12,12],"right_children":[2,4,6,8,10,-1,12,14,16,18,20,-1,22,-1,-1,-1,-1,-1,-1,-1,-1,-1,-1],"split_conditions":[9.110375E-1,1.6691234E0,-2.7830408E0,-5.57687E-1,3.6773756E-1,4.9849436E-1,-2.4940646E0,-8.2319504E-1,4.9329153E-1,3.91817E-1,2.1961063E-1,-6.900757E-1,-2.3930964E0,-1.9774986E-2,3.036355E-2,-3.9314006E-2,5.7867584E-3,1.7199807E-1,2.611495E-2,-5.5939782E-2,1.0610145E-1,-2.9992184E-1,3.7236094E-2],"split_indices":[4,3,1,3,2,0,1,4,3,9,9,0,9,0,0,0,0,0,0,0,0,0,0],"split_type":[0,0,0,0,0,0,0,0,0,0,0,0,0,0,0,0,0,0,0,0,0,0,0],"sum_hessian":[4E3,3.3E3,7E2,3.166E3,1.34E2,3E0,6.97E2,8.93E2,2.273E3,8.5E1,4.9E1,1E0,6.96E2,2.21E2,6.72E2,1.424E3,8.49E2,5.2E1,3.3E1,2.8E1,2.1E1,6E0,6.9E2],"tree_param":{"num_deleted":"0","num_feature":"12","num_nodes":"23","size_leaf_vector":"1"}},{"base_weights":[-1.5598384E-4,-1.1364944E-2,4.7622654E-1,8.995966E-2,-6.3335955E-2,-1.1337538E0,6.2215143E-1,-1.8546006E-1,1.8662955E-1,-8.967796E-2,3.0444786E-1,3.3613867E-1,-1.679741E0,8.03471E-1,-6.706779E-1,-9.0883724E-2,-1.2854333E-2,3.1292105E-1,3.4168635E-2,-2.073251E-2,8.845616E-2,7.193537E-2,-2.585409E-1,1.0396115E-1,-3.1195462E-3,-3.940687E-1,-1.4647155E-1,1.13774456E-1,3.2659993E-1,-3.5408446E-1,2.0061998E-1],"categories":[],"categories_nodes":[],"categories_segments":[],"categories_sizes":[],"default_left":[1,0,0,0,1,0,1,0,0,1,1,0,0,1,0,0,0,0,0,0,0,0,0,0,0,0,0,0,0,0,0],"id":19,"left_children":[1,3,5,7,9,11,13,15,17,19,21,23,25,27,29,-1,-1,-1,-1,-1,-1,-1,-1,-1,-1,-1,-1,-1,-1,-1,-1],"loss_changes":[2.1369764E1,2.0595528E1,2.2319496E1,3.5339096E1,2.5071209E1,6.984967E0,2.0464176E1,1.1215949E1,2.1094383E1,1.7996702E1,1.5725124E1,2.0191494E-1,2.0887566E-1,1.3666508E1,2.2023918E1,0E0,0E0,0E0,0E0,0E0,0E0,0E0,0E0,0E0,0E0,0E0,0E0,0E0,0E0,0E0,0E0],"parents":[2147483647,0,0,1,1,2,2,3,3,4,4,5,5,6,6,7,7,8,8,9,9,10,10,11,11,12,12,13,13,14,14],"right_children":[2,4,6,8,10,12,14,16,18,20,22,24,26,28,30,-1,-1,-1,-1,-1,-1,-1,-1,-1,-1,-1,-1,-1,-1,-1,-1],"split_conditions":[2.0090375E0,-3.6352116E-1,-1.355256E0,-1.2579839E0,1.6706289E0,9.657629E-1,1.5256491E0,-4.3571076E-1,-2.276516E0,1.9202032E0,2.7231166E0,-3.149675E-1,-3.92491E-1,8.0360055E-1,-6.2581784E-1,-9.0883724E-2,-1.2854333E-2,3.1292105E-1,3.4168635E-2,-2.073251E-2,8.845616E-2,7.193537E-2,-2.585409E-1,1.0396115E-1,-3.1195462E-3,-3.940687E-1,-1.4647155E-1,1.13774456E-1,3.2659993E-1,-3.5408446E-1,2.0061998E-1],"split_indices":[4,2,1,2,2,0,1,0,1,1,1,0,5,1,0,0,0,0,0,0,0,0,0,0,0,0,0,0,0,0,0],"split_type":[0,0,0,0,0,0,0,0,0,0,0,0,0,0,0,0,0,0,0,0,0,0,0,0,0,0,0,0,0,0,0],"sum_hessian":[4E3,3.909E3,9.1E1,1.325E3,2.584E3,7E0,8.4E1,3.44E2,9.81E2,2.412E3,1.72E2,2E0,5E0,7.4E1,1E1,1.06E2,2.38E2,1E1,9.71E2,2.351E3,6.1E1,1.67E2,5E0,1E0,1E0,3E0,2E0,5.9E1,1.5E1,6E0,4E0],"tree_param":{"num_deleted":"0","num_feature":"12","num_nodes":"31","size_leaf_vector":"1"}}]},"name":"gbtree"},"learner_model_param":{"base_score":"[-7.201067E-2]","boost_from_average":"1","num_class":"0","num_feature":"12","num_target":"1"},"objective":{"name":"reg:squarederror","reg_loss_param":{"scale_pos_weight":"1"}}},"version":[3,3,0]}